{"learner":{"attributes":{"scikit_learn":"{\"_estimator_type\": \"regressor\"}"},"feature_names":[],"feature_types":[],"gradient_booster":{"model":{"gbtree_model_param":{"num_parallel_tree":"1","num_trees":"100"},"iteration_indptr":[0,1,2,3,4,5,6,7,8,9,10,11,12,13,14,15,16,17,18,19,20,21,22,23,24,25,26,27,28,29,30,31,32,33,34,35,36,37,38,39,40,41,42,43,44,45,46,47,48,49,50,51,52,53,54,55,56,57,58,59,60,61,62,63,64,65,66,67,68,69,70,71,72,73,74,75,76,77,78,79,80,81,82,83,84,85,86,87,88,89,90,91,92,93,94,95,96,97,98,99,100],"tree_info":[0,0,0,0,0,0,0,0,0,0,0,0,0,0,0,0,0,0,0,0,0,0,0,0,0,0,0,0,0,0,0,0,0,0,0,0,0,0,0,0,0,0,0,0,0,0,0,0,0,0,0,0,0,0,0,0,0,0,0,0,0,0,0,0,0,0,0,0,0,0,0,0,0,0,0,0,0,0,0,0,0,0,0,0,0,0,0,0,0,0,0,0,0,0,0,0,0,0,0,0],"trees":[{"base_weights":[1.4356837E3,-3.9287712E5,1.7079498E5,-4.6131975E5,-2.7842172E5,8.322625E4,7.8634E5,-4.7196953E4,2.4990848E4,-3.3072855E4,-2.0284828E4,-2.9790798E3,4.0487562E4,3.7935477E4,9.013824E4],"categories":[],"categories_nodes":[],"categories_segments":[],"categories_sizes":[],"default_left":[0,0,0,0,0,1,1,0,0,0,0,0,0,0,0],"id":0,"left_children":[1,3,5,7,9,11,13,-1,-1,-1,-1,-1,-1,-1,-1],"loss_changes":[3.9407228E14,1.3760572E13,2.2244407E14,8.5104274E12,2.5656096E12,1.3142405E14,2.3723822E13,0E0,0E0,0E0,0E0,0E0,0E0,0E0,0E0],"parents":[2147483647,0,0,1,1,2,2,3,3,4,4,5,5,6,6],"right_children":[2,4,6,8,10,12,14,-1,-1,-1,-1,-1,-1,-1,-1],"split_conditions":[6.0471397E-2,-6.9184905E-1,1.1787437E0,3.472889E-1,-4.3338308E-1,1.9136429E-1,1.4048247E-1,-4.7196953E4,2.4990848E4,-3.3072855E4,-2.0284828E4,-2.9790798E3,4.0487562E4,3.7935477E4,9.013824E4],"split_indices":[42,12,12,29,12,46,46,0,0,0,0,0,0,0,0],"split_type":[0,0,0,0,0,0,0,0,0,0,0,0,0,0,0],"sum_hessian":[5.899E3,1.772E3,4.127E3,1.107E3,6.65E2,3.614E3,5.13E2,1.091E3,1.6E1,3.91E2,2.74E2,2.675E3,9.39E2,1.14E2,3.99E2],"tree_param":{"num_deleted":"0","num_feature":"2785","num_nodes":"15","size_leaf_vector":"1"}},{"base_weights":[1.7654395E3,-3.4975453E5,1.5514438E5,-3.8431575E5,-1.18372484E5,7.2116484E4,6.85595E5,-4.402956E4,-3.0094988E4,-1.8393365E4,1.61462705E4,-6.7770234E3,2.9544188E4,3.625176E4,8.22015E4],"categories":[],"categories_nodes":[],"categories_segments":[],"categories_sizes":[],"default_left":[0,0,0,0,0,0,1,0,0,0,0,0,0,0,0],"id":1,"left_children":[1,3,5,7,9,11,13,-1,-1,-1,-1,-1,-1,-1,-1],"loss_changes":[3.1077078E14,1.3956983E13,1.766919E14,6.9750604E12,4.231006E12,1.0845495E14,2.36343E13,0E0,0E0,0E0,0E0,0E0,0E0,0E0,0E0],"parents":[2147483647,0,0,1,1,2,2,3,3,4,4,5,5,6,6],"right_children":[2,4,6,8,10,12,14,-1,-1,-1,-1,-1,-1,-1,-1],"split_conditions":[6.0471397E-2,8.080735E-2,1.0699159E0,-7.605581E-1,8.134148E-1,2.6495233E-2,1.4676668E-1,-4.402956E4,-3.0094988E4,-1.8393365E4,1.61462705E4,-6.7770234E3,2.9544188E4,3.625176E4,8.22015E4],"split_indices":[42,59,12,12,29,16,46,0,0,0,0,0,0,0,0],"split_type":[0,0,0,0,0,0,0,0,0,0,0,0,0,0,0],"sum_hessian":[5.762E3,1.75E3,4.012E3,1.522E3,2.28E2,3.47E3,5.42E2,9.08E2,6.14E2,1.85E2,4.3E1,2.134E3,1.336E3,1.62E2,3.8E2],"tree_param":{"num_deleted":"0","num_feature":"2785","num_nodes":"15","size_leaf_vector":"1"}},{"base_weights":[-7.6998228E3,-3.192073E5,1.29828914E5,-3.48142E5,-1.2789265E5,5.497047E4,5.888816E5,-3.946717E4,-2.6718504E4,2.2538113E4,-1.5971643E4,-5.248015E3,2.7718818E4,4.057022E4,8.0349305E4],"categories":[],"categories_nodes":[],"categories_segments":[],"categories_sizes":[],"default_left":[0,0,0,0,0,0,0,0,0,0,0,0,0,0,0],"id":2,"left_children":[1,3,5,7,9,11,13,-1,-1,-1,-1,-1,-1,-1,-1],"loss_changes":[2.5066266E14,9.875304E12,1.39450995E14,5.75586E12,2.700471E12,8.337067E13,2.2042779E13,0E0,0E0,0E0,0E0,0E0,0E0,0E0,0E0],"parents":[2147483647,0,0,1,1,2,2,3,3,4,4,5,5,6,6],"right_children":[2,4,6,8,10,12,14,-1,-1,-1,-1,-1,-1,-1,-1],"split_conditions":[5.9586532E-2,7.922438E-2,1.0699159E0,-7.3773193E-1,-9.445509E-1,1.4850752E-1,1.9492997E0,-3.946717E4,-2.6718504E4,2.2538113E4,-1.5971643E4,-5.248015E3,2.7718818E4,4.057022E4,8.0349305E4],"split_indices":[42,59,12,12,12,16,12,0,0,0,0,0,0,0,0],"split_type":[0,0,0,0,0,0,0,0,0,0,0,0,0,0,0],"sum_hessian":[5.849E3,1.791E3,4.058E3,1.555E3,2.36E2,3.49E3,5.68E2,9.85E2,5.7E2,1.9E1,2.17E2,2.353E3,1.137E3,3.08E2,2.6E2],"tree_param":{"num_deleted":"0","num_feature":"2785","num_nodes":"15","size_leaf_vector":"1"}},{"base_weights":[6.0219536E3,-2.8293278E5,1.3548998E5,-3.2359738E5,-1.5921823E5,1.9276441E4,3.7926416E5,-3.3115918E4,3.745042E4,-1.7402969E4,-1.9266995E3,-4.444351E3,3.0584889E4,3.0087707E4,8.059714E4],"categories":[],"categories_nodes":[],"categories_segments":[],"categories_sizes":[],"default_left":[0,0,0,0,0,0,0,0,0,0,0,0,0,0,0],"id":3,"left_children":[1,3,5,7,9,11,13,-1,-1,-1,-1,-1,-1,-1,-1],"loss_changes":[2.1799135E14,9.019012E12,1.1399205E14,7.282201E12,9.2529807E11,4.9791392E13,4.3206884E13,0E0,0E0,0E0,0E0,0E0,0E0,0E0,0E0],"parents":[2147483647,0,0,1,1,2,2,3,3,4,4,5,5,6,6],"right_children":[2,4,6,8,10,12,14,-1,-1,-1,-1,-1,-1,-1,-1],"split_conditions":[6.1773654E-2,-5.509724E-1,2.7317226E-1,8.5553086E-1,1.3990259E-1,5.854939E-1,1.6488705E0,-3.3115918E4,3.745042E4,-1.7402969E4,-1.9266995E3,-4.444351E3,3.0584889E4,3.0087707E4,8.059714E4],"split_indices":[42,12,16,29,36,12,12,0,0,0,0,0,0,0,0],"split_type":[0,0,0,0,0,0,0,0,0,0,0,0,0,0,0],"sum_hessian":[5.825E3,1.802E3,4.023E3,1.355E3,4.47E2,2.725E3,1.298E3,1.341E3,1.4E1,4.04E2,4.3E1,2.23E3,4.95E2,1.098E3,2E2],"tree_param":{"num_deleted":"0","num_feature":"2785","num_nodes":"15","size_leaf_vector":"1"}},{"base_weights":[1.9513087E3,-2.5478272E5,1.17541375E5,-2.7736928E5,-6.4791336E4,7.010127E4,6.502066E5,-3.0275607E4,-1.6794115E4,-9.800254E3,2.8871438E4,-4.857964E2,3.2940855E4,2.3160271E4,7.037062E4],"categories":[],"categories_nodes":[],"categories_segments":[],"categories_sizes":[],"default_left":[0,0,1,0,0,0,0,0,0,0,0,0,0,0,0],"id":4,"left_children":[1,3,5,7,9,11,13,-1,-1,-1,-1,-1,-1,-1,-1],"loss_changes":[1.7425717E14,7.8049874E12,1.0227141E14,4.4745506E12,2.3176633E12,7.228956E13,7.249796E12,0E0,0E0,0E0,0E0,0E0,0E0,0E0,0E0],"parents":[2147483647,0,0,1,1,2,2,3,3,4,4,5,5,6,6],"right_children":[2,4,6,8,10,12,14,-1,-1,-1,-1,-1,-1,-1,-1],"split_conditions":[6.0471397E-2,1.322554E-1,1.264106E-1,4.318312E-2,1.4087969E0,5.1321816E-1,-6.7588896E-2,-3.0275607E4,-1.6794115E4,-9.800254E3,2.8871438E4,-4.857964E2,3.2940855E4,2.3160271E4,7.037062E4],"split_indices":[42,0,42,42,6,16,18,0,0,0,0,0,0,0,0],"split_type":[0,0,0,0,0,0,0,0,0,0,0,0,0,0,0],"sum_hessian":[5.87E3,1.822E3,4.048E3,1.628E3,1.94E2,3.718E3,3.3E2,1.32E3,3.08E2,1.78E2,1.6E1,2.885E3,8.33E2,3.8E1,2.92E2],"tree_param":{"num_deleted":"0","num_feature":"2785","num_nodes":"15","size_leaf_vector":"1"}},{"base_weights":[2.0291136E3,-2.334143E5,1.03743414E5,-2.8269634E5,-1.640198E5,4.6162086E4,4.6501197E5,-3.0554457E4,-1.6502479E4,-1.7875984E4,3.6308281E3,5.3694387E4,1.3329823E3,8.4679795E3,5.3021652E4],"categories":[],"categories_nodes":[],"categories_segments":[],"categories_sizes":[],"default_left":[0,0,1,0,0,0,0,0,0,0,0,0,0,0,0],"id":5,"left_children":[1,3,5,7,9,11,13,-1,-1,-1,-1,-1,-1,-1,-1],"loss_changes":[1.3947319E14,5.9624045E12,8.458157E13,2.7080692E12,2.1679728E12,5.6535028E13,1.3817958E13,0E0,0E0,0E0,0E0,0E0,0E0,0E0,0E0],"parents":[2147483647,0,0,1,1,2,2,3,3,4,4,5,5,6,6],"right_children":[2,4,6,8,10,12,14,-1,-1,-1,-1,-1,-1,-1,-1],"split_conditions":[5.9586532E-2,-3.6956033E-1,1.0251088E-1,4.2857143E-1,6.22099E-1,-1.6961894E0,-5.485482E-1,-3.0554457E4,-1.6502479E4,-1.7875984E4,3.6308281E3,5.3694387E4,1.3329823E3,8.4679795E3,5.3021652E4],"split_indices":[42,6,42,58,1,19,17,0,0,0,0,0,0,0,0],"split_type":[0,0,0,0,0,0,0,0,0,0,0,0,0,0,0],"sum_hessian":[5.822E3,1.756E3,4.066E3,1.025E3,7.31E2,3.508E3,5.58E2,8.57E2,1.68E2,6.81E2,5E1,2.19E2,3.289E3,8.2E1,4.76E2],"tree_param":{"num_deleted":"0","num_feature":"2785","num_nodes":"15","size_leaf_vector":"1"}},{"base_weights":[1.4891215E3,-4.929632E4,3.8315172E5,3.658566E4,-2.190083E5,2.726435E5,6.068616E5,-1.3480645E3,4.2690684E4,-2.5222895E4,4.6567227E2,2.072547E4,4.71007E4,1.9859521E4,6.704212E4],"categories":[],"categories_nodes":[],"categories_segments":[],"categories_sizes":[],"default_left":[0,0,0,0,0,0,0,0,0,0,0,0,0,0,0],"id":6,"left_children":[1,3,5,7,9,11,13,-1,-1,-1,-1,-1,-1,-1,-1],"loss_changes":[1.13719E14,7.5478405E13,1.6867847E13,6.7210475E13,1.292989E13,5.907841E12,5.7573366E12,0E0,0E0,0E0,0E0,0E0,0E0,0E0,0E0],"parents":[2147483647,0,0,1,1,2,2,3,3,4,4,5,5,6,6],"right_children":[2,4,6,8,10,12,14,-1,-1,-1,-1,-1,-1,-1,-1],"split_conditions":[8.319704E-1,9.758065E-1,2.1406705E0,1.0039198E0,1.112616E0,1.7191042E-1,-6.7588896E-2,-1.3480645E3,4.2690684E4,-2.5222895E4,4.6567227E2,2.072547E4,4.71007E4,1.9859521E4,6.704212E4],"split_indices":[12,57,12,16,15,59,18,0,0,0,0,0,0,0,0],"split_type":[0,0,0,0,0,0,0,0,0,0,0,0,0,0,0],"sum_hessian":[5.865E3,5.177E3,6.88E2,3.438E3,1.739E3,4.62E2,2.26E2,3.048E3,3.9E2,1.514E3,2.25E2,3.49E2,1.13E2,3.1E1,1.95E2],"tree_param":{"num_deleted":"0","num_feature":"2785","num_nodes":"15","size_leaf_vector":"1"}},{"base_weights":[-4.4410825E3,-1.9681539E5,7.4332555E4,-2.4001295E5,-1.3985377E5,3.923002E4,4.6497766E5,-2.4253568E4,2.9134682E4,-1.44419E4,4.373697E4,1.2295875E4,-1.1106697E4,3.8054523E4,6.4360934E4],"categories":[],"categories_nodes":[],"categories_segments":[],"categories_sizes":[],"default_left":[0,0,0,0,0,0,0,0,0,0,0,0,0,0,0],"id":7,"left_children":[1,3,5,7,9,11,13,-1,-1,-1,-1,-1,-1,-1,-1],"loss_changes":[8.836259E13,4.1346946E12,5.6710924E13,1.3602044E12,1.9947344E12,4.779577E13,4.898142E12,0E0,0E0,0E0,0E0,0E0,0E0,0E0,0E0],"parents":[2147483647,0,0,1,1,2,2,3,3,4,4,5,5,6,6],"right_children":[2,4,6,8,10,12,14,-1,-1,-1,-1,-1,-1,-1,-1],"split_conditions":[5.5521157E-2,-4.2946193E-1,1.4761457E0,5.8576757E-1,1.8985353E0,2.00001E0,2.952081E0,-2.4253568E4,2.9134682E4,-1.44419E4,4.373697E4,1.2295875E4,-1.1106697E4,3.8054523E4,6.4360934E4],"split_indices":[42,6,29,29,0,2731,29,0,0,0,0,0,0,0,0],"split_type":[0,0,0,0,0,0,0,0,0,0,0,0,0,0,0],"sum_hessian":[5.829E3,1.693E3,4.136E3,9.61E2,7.32E2,3.796E3,3.4E2,9.57E2,4E0,7.27E2,5E0,2.438E3,1.358E3,2.33E2,1.07E2],"tree_param":{"num_deleted":"0","num_feature":"2785","num_nodes":"15","size_leaf_vector":"1"}},{"base_weights":[3.2565757E3,-4.22171E4,2.8984506E5,4.681763E5,-6.5693E4,2.0268206E5,4.9618303E5,-1.3551898E3,6.2023074E4,-9.969574E3,2.1396045E4,-1.8860006E4,2.2666248E4,-1.1463862E4,5.3816027E4],"categories":[],"categories_nodes":[],"categories_segments":[],"categories_sizes":[],"default_left":[0,1,0,0,0,0,0,0,0,0,0,0,0,0,0],"id":8,"left_children":[1,3,5,7,9,11,13,-1,-1,-1,-1,-1,-1,-1,-1],"loss_changes":[7.58468E13,6.021606E13,1.4233505E13,1.619641E13,4.5692983E13,5.31606E12,6.112871E12,0E0,0E0,0E0,0E0,0E0,0E0,0E0,0E0],"parents":[2147483647,0,0,1,1,2,2,3,3,4,4,5,5,6,6],"right_children":[2,4,6,8,10,12,14,-1,-1,-1,-1,-1,-1,-1,-1],"split_conditions":[6.2123185E-1,1.1699702E-1,2.1406705E0,2.00001E0,8.9196026E-1,9.791202E-2,6.904762E-1,-1.3551898E3,6.2023074E4,-9.969574E3,2.1396045E4,-1.8860006E4,2.2666248E4,-1.1463862E4,5.3816027E4],"split_indices":[12,49,12,2726,7,46,58,0,0,0,0,0,0,0,0],"split_type":[0,0,0,0,0,0,0,0,0,0,0,0,0,0,0],"sum_hessian":[5.818E3,5.022E3,7.96E2,2.2E2,4.802E3,5.61E2,2.35E2,5.3E1,1.67E2,4.282E3,5.2E2,3.2E1,5.29E2,1.5E1,2.2E2],"tree_param":{"num_deleted":"0","num_feature":"2785","num_nodes":"15","size_leaf_vector":"1"}},{"base_weights":[-4.0693044E3,-1.5353738E5,6.951947E4,-1.6211884E5,4.9036697E5,-6.604535E4,1.9343845E5,-2.259196E4,-1.2156759E4,1.8802701E3,6.0174883E4,2.9642068E3,-1.7466775E4,1.3166683E4,3.6869043E4],"categories":[],"categories_nodes":[],"categories_segments":[],"categories_sizes":[],"default_left":[0,0,0,0,0,0,0,0,0,0,0,0,0,0,0],"id":9,"left_children":[1,3,5,7,9,11,13,-1,-1,-1,-1,-1,-1,-1,-1],"loss_changes":[6.527976E13,1.089871E13,6.682262E13,4.9735973E12,1.354302E12,1.9753391E13,2.244705E13,0E0,0E0,0E0,0E0,0E0,0E0,0E0,0E0],"parents":[2147483647,0,0,1,1,2,2,3,3,4,4,5,5,6,6],"right_children":[2,4,6,8,10,12,14,-1,-1,-1,-1,-1,-1,-1,-1],"split_conditions":[-9.1221176E-2,1.8516074E0,-1.8172139E-1,-6.9702727E-1,2.00001E0,2.00001E0,6.832135E-1,-2.259196E4,-1.2156759E4,1.8802701E3,6.0174883E4,2.9642068E3,-1.7466775E4,1.3166683E4,3.6869043E4],"split_indices":[12,29,16,1,71,2731,49,0,0,0,0,0,0,0,0],"split_type":[0,0,0,0,0,0,0,0,0,0,0,0,0,0,0],"sum_hessian":[5.933E3,1.957E3,3.976E3,1.932E3,2.5E1,1.899E3,2.077E3,7.49E2,1.183E3,5E0,2E1,1.01E3,8.89E2,1.537E3,5.4E2],"tree_param":{"num_deleted":"0","num_feature":"2785","num_nodes":"15","size_leaf_vector":"1"}},{"base_weights":[1.5465355E3,-2.796797E4,3.559148E5,4.409385E5,-4.7386867E4,2.6078536E5,5.2064553E5,2.0851892E3,5.526725E4,-8.937001E3,1.3617497E4,1.4224617E4,3.519354E4,9.549206E3,5.7607902E4],"categories":[],"categories_nodes":[],"categories_segments":[],"categories_sizes":[],"default_left":[0,0,0,0,0,0,0,0,0,0,0,0,0,0,0],"id":10,"left_children":[1,3,5,7,9,11,13,-1,-1,-1,-1,-1,-1,-1,-1],"loss_changes":[6.094412E13,4.900016E13,6.8847193E12,1.0033199E13,3.982396E13,3.040126E12,3.7865338E12,0E0,0E0,0E0,0E0,0E0,0E0,0E0,0E0],"parents":[2147483647,0,0,1,1,2,2,3,3,4,4,5,5,6,6],"right_children":[2,4,6,8,10,12,14,-1,-1,-1,-1,-1,-1,-1,-1],"split_conditions":[1.2250031E0,-1.6961894E0,2.5588346E0,2.00001E0,8.2914E-1,1.7954814E0,6.613925E-5,2.0851892E3,5.526725E4,-8.937001E3,1.3617497E4,1.4224617E4,3.519354E4,9.549206E3,5.7607902E4],"split_indices":[29,19,29,2726,19,1,39,0,0,0,0,0,0,0,0],"split_type":[0,0,0,0,0,0,0,0,0,0,0,0,0,0,0],"sum_hessian":[5.825E3,5.378E3,4.47E2,2.13E2,5.165E3,2.85E2,1.62E2,4.5E1,1.68E2,4.204E3,9.61E2,1.25E2,1.6E2,1.9E1,1.43E2],"tree_param":{"num_deleted":"0","num_feature":"2785","num_nodes":"15","size_leaf_vector":"1"}},{"base_weights":[-2.1015408E2,-6.6745484E4,1.30667516E5,-1.0039989E5,1.23692445E5,3.5688288E5,8.26485E4,-1.2235381E4,8.719647E3,-1.677081E4,1.507455E4,4.666163E4,1.9089947E4,2.739739E4,-3.1365696E3],"categories":[],"categories_nodes":[],"categories_segments":[],"categories_sizes":[],"default_left":[0,0,0,0,0,0,0,0,0,0,0,0,0,0,0],"id":11,"left_children":[1,3,5,7,9,11,13,-1,-1,-1,-1,-1,-1,-1,-1],"loss_changes":[5.095046E13,2.4873219E13,2.1391632E13,1.3589281E13,4.6212307E12,6.194727E12,3.5521477E13,0E0,0E0,0E0,0E0,0E0,0E0,0E0,0E0],"parents":[2147483647,0,0,1,1,2,2,3,3,4,4,5,5,6,6],"right_children":[2,4,6,8,10,12,14,-1,-1,-1,-1,-1,-1,-1,-1],"split_conditions":[1.5E-1,3.0420178E-1,-1.4607964E0,8.9196026E-1,9.304683E-2,1.4874963E0,2.1149987E-1,-1.2235381E4,8.719647E3,-1.677081E4,1.507455E4,4.666163E4,1.9089947E4,2.739739E4,-3.1365696E3],"split_indices":[47,12,14,7,46,10,45,0,0,0,0,0,0,0,0],"split_type":[0,0,0,0,0,0,0,0,0,0,0,0,0,0,0],"sum_hessian":[5.849E3,3.878E3,1.971E3,3.296E3,5.82E2,3.44E2,1.627E3,2.951E3,3.45E2,4.9E1,5.33E2,2.06E2,1.38E2,6.07E2,1.02E3],"tree_param":{"num_deleted":"0","num_feature":"2785","num_nodes":"15","size_leaf_vector":"1"}},{"base_weights":[2.9716418E3,-1.5679358E5,5.018634E4,-2.1948925E5,-1.2082599E5,-7.734991E4,1.5415267E5,-2.71064E4,-1.9326723E4,-2.8746531E4,-1.1546039E4,-2.0667076E4,-2.9356309E3,1.1461737E4,4.01002E4],"categories":[],"categories_nodes":[],"categories_segments":[],"categories_sizes":[],"default_left":[0,0,1,0,0,0,0,0,0,0,0,0,0,0,0],"id":12,"left_children":[1,3,5,7,9,11,13,-1,-1,-1,-1,-1,-1,-1,-1],"loss_changes":[4.437736E13,2.9997054E12,6.0223197E13,6.075806E11,7.3128215E11,1.2655343E13,2.4371708E13,0E0,0E0,0E0,0E0,0E0,0E0,0E0,0E0],"parents":[2147483647,0,0,1,1,2,2,3,3,4,4,5,5,6,6],"right_children":[2,4,6,8,10,12,14,-1,-1,-1,-1,-1,-1,-1,-1],"split_conditions":[4.2857143E-1,1.5507804E-1,1.4048247E-1,-1.0854275E0,-1.7524588E0,9.476992E-2,2.7032232E-1,-2.71064E4,-1.9326723E4,-2.8746531E4,-1.1546039E4,-2.0667076E4,-2.9356309E3,1.1461737E4,4.01002E4],"split_indices":[58,51,46,12,12,46,46,0,0,0,0,0,0,0,0],"split_type":[0,0,0,0,0,0,0,0,0,0,0,0,0,0,0],"sum_hessian":[5.881E3,1.341E3,4.54E3,4.87E2,8.54E2,2.039E3,2.501E3,1.61E2,3.26E2,2.5E1,8.29E2,5.51E2,1.488E3,2.157E3,3.44E2],"tree_param":{"num_deleted":"0","num_feature":"2785","num_nodes":"15","size_leaf_vector":"1"}},{"base_weights":[8.421324E2,-4.1508098E4,1.5352169E5,-7.593438E4,1.2951478E5,-7.128751E4,2.6377472E5,3.1167895E4,-9.338801E3,8.348245E3,2.7258092E4,-8.28437E3,4.6564996E4,1.52811875E4,3.866895E4],"categories":[],"categories_nodes":[],"categories_segments":[],"categories_sizes":[],"default_left":[0,0,0,0,0,0,0,0,0,0,0,0,0,0,0],"id":13,"left_children":[1,3,5,7,9,11,13,-1,-1,-1,-1,-1,-1,-1,-1],"loss_changes":[3.793601E13,2.7051958E13,3.1596036E13,2.5899448E13,5.0482077E12,2.6446555E12,1.1602225E13,0E0,0E0,0E0,0E0,0E0,0E0,0E0,0E0],"parents":[2147483647,0,0,1,1,2,2,3,3,4,4,5,5,6,6],"right_children":[2,4,6,8,10,12,14,-1,-1,-1,-1,-1,-1,-1,-1],"split_conditions":[5.689194E-1,2.5001848E-1,5.214514E-1,-1.6961894E0,1.7300302E0,3.3537261E0,7.124083E-1,3.1167895E4,-9.338801E3,8.348245E3,2.7258092E4,-8.28437E3,4.6564996E4,1.52811875E4,3.866895E4],"split_indices":[16,12,58,19,12,17,13,0,0,0,0,0,0,0,0],"split_type":[0,0,0,0,0,0,0,0,0,0,0,0,0,0,0],"sum_hessian":[5.865E3,4.592E3,1.273E3,3.823E3,7.69E2,4.19E2,8.54E2,1.64E2,3.659E3,5.83E2,1.86E2,4.11E2,8E0,4.5E2,4.04E2],"tree_param":{"num_deleted":"0","num_feature":"2785","num_nodes":"15","size_leaf_vector":"1"}},{"base_weights":[-6.955984E1,-2.2454465E4,2.6249294E5,-9.168119E4,5.512292E4,1.9949903E5,4.3641447E5,-1.2911665E4,5.692193E3,1.1371749E4,-8.882501E3,1.1009546E4,2.7253676E4,1.1200984E4,4.878704E4],"categories":[],"categories_nodes":[],"categories_segments":[],"categories_sizes":[],"default_left":[0,0,0,1,0,0,0,0,0,0,0,0,0,0,0],"id":14,"left_children":[1,3,5,7,9,11,13,-1,-1,-1,-1,-1,-1,-1,-1],"loss_changes":[3.456522E13,2.9107404E13,4.974608E12,1.5939853E13,2.1568856E13,2.1966692E12,1.9818422E12,0E0,0E0,0E0,0E0,0E0,0E0,0E0,0E0],"parents":[2147483647,0,0,1,1,2,2,3,3,4,4,5,5,6,6],"right_children":[2,4,6,8,10,12,14,-1,-1,-1,-1,-1,-1,-1,-1],"split_conditions":[1.2250031E0,6.8205353E-3,2.952081E0,6.732494E-2,9.596774E-1,2.2498822E-1,2.00001E0,-1.2911665E4,5.692193E3,1.1371749E4,-8.882501E3,1.1009546E4,2.7253676E4,1.1200984E4,4.878704E4],"split_indices":[29,20,29,42,57,31,71,0,0,0,0,0,0,0,0],"split_type":[0,0,0,0,0,0,0,0,0,0,0,0,0,0,0],"sum_hessian":[5.879E3,5.418E3,4.61E2,2.863E3,2.555E3,3.4E2,1.21E2,2.287E3,5.76E2,1.816E3,7.39E2,1.54E2,1.86E2,1.7E1,1.04E2],"tree_param":{"num_deleted":"0","num_feature":"2785","num_nodes":"15","size_leaf_vector":"1"}},{"base_weights":[-3.6391245E3,-8.761587E4,5.360016E4,-1.3153612E5,-1.0142841E4,-8.824652E4,1.1998788E5,-7.953109E3,-2.0546406E4,-1.5897388E4,1.3507501E3,-1.0409466E4,5.546727E3,4.0904836E4,8.847407E3],"categories":[],"categories_nodes":[],"categories_segments":[],"categories_sizes":[],"default_left":[0,0,0,0,0,0,0,0,0,0,0,0,0,0,0],"id":15,"left_children":[1,3,5,7,9,11,13,-1,-1,-1,-1,-1,-1,-1,-1],"loss_changes":[2.8153133E13,8.0765245E12,3.280957E13,5.808266E12,3.0292653E12,2.5361824E12,2.1580413E13,0E0,0E0,0E0,0E0,0E0,0E0,0E0,0E0],"parents":[2147483647,0,0,1,1,2,2,3,3,4,4,5,5,6,6],"right_children":[2,4,6,8,10,12,14,-1,-1,-1,-1,-1,-1,-1,-1],"split_conditions":[-3.2097456E-1,6.904762E-1,5.214514E-1,2.00001E0,8.108656E-2,8.956975E-1,-1.233056E0,-7.953109E3,-2.0546406E4,-1.5897388E4,1.3507501E3,-1.0409466E4,5.546727E3,4.0904836E4,8.847407E3],"split_indices":[16,58,58,2731,46,13,19,0,0,0,0,0,0,0,0],"split_type":[0,0,0,0,0,0,0,0,0,0,0,0,0,0,0],"sum_hessian":[5.855E3,2.373E3,3.482E3,1.514E3,8.59E2,1.11E3,2.372E3,8.9E2,6.24E2,1.17E2,7.42E2,1E3,1.1E2,2.32E2,2.14E3],"tree_param":{"num_deleted":"0","num_feature":"2785","num_nodes":"15","size_leaf_vector":"1"}},{"base_weights":[1.4510618E3,-2.639556E4,1.8477883E5,-5.4577535E4,1.2094873E5,6.068721E4,3.8161116E5,2.6195742E4,-6.984232E3,9.333626E3,4.0703715E4,-6.9240483E3,3.622045E4,2.8885521E4,5.632684E4],"categories":[],"categories_nodes":[],"categories_segments":[],"categories_sizes":[],"default_left":[1,0,0,0,0,0,0,0,0,0,0,0,0,0,0],"id":16,"left_children":[1,3,5,7,9,11,13,-1,-1,-1,-1,-1,-1,-1,-1],"loss_changes":[2.965506E13,2.0947422E13,1.8686574E13,2.04763E13,6.3606903E12,1.8476712E13,4.824838E12,0E0,0E0,0E0,0E0,0E0,0E0,0E0,0E0],"parents":[2147483647,0,0,1,1,2,2,3,3,4,4,5,5,6,6],"right_children":[2,4,6,8,10,12,14,-1,-1,-1,-1,-1,-1,-1,-1],"split_conditions":[2.3677276E-1,3.0420178E-1,6.608666E-1,-1.6961894E0,2.8498957E0,8.0410576E-1,3.060004E-1,2.6195742E4,-6.984232E3,9.333626E3,4.0703715E4,-6.9240483E3,3.622045E4,2.8885521E4,5.632684E4],"split_indices":[46,12,13,19,12,19,46,0,0,0,0,0,0,0,0],"split_type":[0,0,0,0,0,0,0,0,0,0,0,0,0,0,0],"sum_hessian":[5.807E3,5.042E3,7.65E2,4.233E3,8.09E2,4.7E2,2.95E2,1.94E2,4.039E3,7.39E2,7E1,3.29E2,1.41E2,1.97E2,9.8E1],"tree_param":{"num_deleted":"0","num_feature":"2785","num_nodes":"15","size_leaf_vector":"1"}},{"base_weights":[3.0536252E3,-5.7178773E4,6.523742E4,-3.587999E5,-4.7385062E4,-3.1057295E3,1.969755E5,-2.2816396E4,-3.9846367E4,5.628284E3,-7.5800234E3,-9.23258E3,2.2421879E4,1.470303E4,4.4100184E4],"categories":[],"categories_nodes":[],"categories_segments":[],"categories_sizes":[],"default_left":[0,0,1,0,0,0,0,0,0,0,0,0,0,0,0],"id":17,"left_children":[1,3,5,7,9,11,13,-1,-1,-1,-1,-1,-1,-1,-1],"loss_changes":[2.1839875E13,8.732716E12,2.5831349E13,3.909647E11,8.458543E12,3.835351E13,1.1879347E13,0E0,0E0,0E0,0E0,0E0,0E0,0E0,0E0],"parents":[2147483647,0,0,1,1,2,2,3,3,4,4,5,5,6,6],"right_children":[2,4,6,8,10,12,14,-1,-1,-1,-1,-1,-1,-1,-1],"split_conditions":[-1.2867257E-1,2.00001E0,7.7787185E-1,4.8834577E-2,-1.501981E0,8.2914E-1,1.396481E0,-2.2816396E4,-3.9846367E4,5.628284E3,-7.5800234E3,-9.23258E3,2.2421879E4,1.470303E4,4.4100184E4],"split_indices":[16,2729,43,42,14,19,16,0,0,0,0,0,0,0,0],"split_type":[0,0,0,0,0,0,0,0,0,0,0,0,0,0,0],"sum_hessian":[5.829E3,2.961E3,2.868E3,9.2E1,2.869E3,1.889E3,9.79E2,2.3E1,6.9E1,6.17E2,2.252E3,1.357E3,5.32E2,8.14E2,1.65E2],"tree_param":{"num_deleted":"0","num_feature":"2785","num_nodes":"15","size_leaf_vector":"1"}},{"base_weights":[-3.9174412E3,-2.7530873E4,1.3528655E5,-5.0969473E4,1.3168247E5,1.00029734E5,3.1727422E5,2.389967E4,-6.6388335E3,-2.907683E3,2.3726887E4,8.227471E3,3.3310574E4,3.8068836E4,8.815851E3],"categories":[],"categories_nodes":[],"categories_segments":[],"categories_sizes":[],"default_left":[0,0,0,0,0,0,0,0,0,0,0,0,0,0,0],"id":18,"left_children":[1,3,5,7,9,11,13,-1,-1,-1,-1,-1,-1,-1,-1],"loss_changes":[1.9197009E13,1.8639277E13,5.402875E12,1.9477907E13,1.0887231E13,2.9149055E12,1.9569354E12,0E0,0E0,0E0,0E0,0E0,0E0,0E0,0E0],"parents":[2147483647,0,0,1,1,2,2,3,3,4,4,5,5,6,6],"right_children":[2,4,6,8,10,12,14,-1,-1,-1,-1,-1,-1,-1,-1],"split_conditions":[4.5359573E-1,6.6585565E-1,1.5128702E-1,-1.6961894E0,1.2517738E-1,2.771828E0,1.4769245E0,2.389967E4,-6.6388335E3,-2.907683E3,2.3726887E4,8.227471E3,3.3310574E4,3.8068836E4,8.815851E3],"split_indices":[0,7,42,19,46,29,10,0,0,0,0,0,0,0,0],"split_type":[0,0,0,0,0,0,0,0,0,0,0,0,0,0,0],"sum_hessian":[5.838E3,4.992E3,8.46E2,4.352E3,6.4E2,7.1E2,1.36E2,2.19E2,4.133E3,2.54E2,3.86E2,6.61E2,4.9E1,1.06E2,3E1],"tree_param":{"num_deleted":"0","num_feature":"2785","num_nodes":"15","size_leaf_vector":"1"}},{"base_weights":[5.372538E2,-1.2602716E4,2.4531683E5,-6.1529855E4,4.1918227E4,2.012645E5,3.5034934E5,-1.0971265E4,9.658669E2,2.0452541E4,1.7003778E3,2.0904623E4,-2.5759238E4,4.0821125E4,-4.530516E3],"categories":[],"categories_nodes":[],"categories_segments":[],"categories_sizes":[],"default_left":[0,0,0,0,0,0,0,0,0,0,0,0,0,0,0],"id":19,"left_children":[1,3,5,7,9,11,13,-1,-1,-1,-1,-1,-1,-1,-1],"loss_changes":[1.8876903E13,1.4860854E13,1.3129388E12,1.0071719E13,1.0671614E13,8.14408E11,2.0102135E12,0E0,0E0,0E0,0E0,0E0,0E0,0E0,0E0],"parents":[2147483647,0,0,1,1,2,2,3,3,4,4,5,5,6,6],"right_children":[2,4,6,8,10,12,14,-1,-1,-1,-1,-1,-1,-1,-1],"split_conditions":[1.7449518E0,6.8205353E-3,3.279568E0,6.904762E-1,1.17738046E-1,5.5552015E0,1.6666668E-2,-1.0971265E4,9.658669E2,2.0452541E4,1.7003778E3,2.0904623E4,-2.5759238E4,4.0821125E4,-4.530516E3],"split_indices":[29,20,2,58,44,26,52,0,0,0,0,0,0,0,0],"split_type":[0,0,0,0,0,0,0,0,0,0,0,0,0,0,0],"sum_hessian":[5.867E3,5.569E3,2.98E2,2.935E3,2.634E3,2.12E2,8.6E1,1.75E3,1.185E3,3.49E2,2.285E3,2.09E2,3E0,7.5E1,1.1E1],"tree_param":{"num_deleted":"0","num_feature":"2785","num_nodes":"15","size_leaf_vector":"1"}},{"base_weights":[-1.1183348E3,-4.4391656E4,6.877626E4,-1.090145E5,8.5594195E4,1.596807E5,-4.251879E4,-2.0592207E4,-8.101596E3,1.6574643E4,-3.2492537E3,4.8819746E3,2.3937615E4,-1.799537E4,4.6376382E2],"categories":[],"categories_nodes":[],"categories_segments":[],"categories_sizes":[],"default_left":[0,0,0,0,0,0,0,0,0,0,0,0,0,0,0],"id":20,"left_children":[1,3,5,7,9,11,13,-1,-1,-1,-1,-1,-1,-1,-1],"loss_changes":[1.761513E13,3.0224329E13,2.2537828E13,6.503306E12,1.1315957E13,1.0820161E13,6.494735E12,0E0,0E0,0E0,0E0,0E0,0E0,0E0,0E0],"parents":[2147483647,0,0,1,1,2,2,3,3,4,4,5,5,6,6],"right_children":[2,4,6,8,10,12,14,-1,-1,-1,-1,-1,-1,-1,-1],"split_conditions":[7.124083E-1,8.2914E-1,2.00001E0,4.7931608E-2,2.00001E0,6.8205353E-3,9.476992E-2,-2.0592207E4,-8.101596E3,1.6574643E4,-3.2492537E3,4.8819746E3,2.3937615E4,-1.799537E4,4.6376382E2],"split_indices":[13,19,2731,27,2731,20,46,0,0,0,0,0,0,0,0],"split_type":[0,0,0,0,0,0,0,0,0,0,0,0,0,0,0],"sum_hessian":[5.822E3,3.596E3,2.226E3,2.402E3,1.194E3,1.225E3,1.001E3,5.37E2,1.865E3,7.11E2,4.83E2,5.13E2,7.12E2,2.55E2,7.46E2],"tree_param":{"num_deleted":"0","num_feature":"2785","num_nodes":"15","size_leaf_vector":"1"}},{"base_weights":[-1.6995006E3,-1.6023105E4,1.9029744E5,-3.3186706E5,-8.109119E3,6.93443E4,3.7204572E5,-3.8049445E4,-2.2124012E4,-1.2240063E4,1.1597235E3,3.0738125E4,-2.5723496E3,5.482072E4,2.3877781E4],"categories":[],"categories_nodes":[],"categories_segments":[],"categories_sizes":[],"default_left":[1,0,0,0,0,0,0,0,0,0,0,0,0,0,0],"id":21,"left_children":[1,3,5,7,9,11,13,-1,-1,-1,-1,-1,-1,-1,-1],"loss_changes":[1.6082814E13,1.360005E13,8.899311E12,6.3129204E11,1.1960968E13,5.5521706E12,3.6723229E12,0E0,0E0,0E0,0E0,0E0,0E0,0E0,0E0],"parents":[2147483647,0,0,1,1,2,2,3,3,4,4,5,5,6,6],"right_children":[2,4,6,8,10,12,14,-1,-1,-1,-1,-1,-1,-1,-1],"split_conditions":[2.8015408E-1,2.00001E0,6.571839E-1,2.00001E0,1.0216907E-1,-1.3417056E0,2.6479904E-2,-3.8049445E4,-2.2124012E4,-1.2240063E4,1.1597235E3,3.0738125E4,-2.5723496E3,5.482072E4,2.3877781E4],"split_indices":[46,2729,13,70,46,14,21,0,0,0,0,0,0,0,0],"split_type":[0,0,0,0,0,0,0,0,0,0,0,0,0,0,0],"sum_hessian":[5.846E3,5.441E3,4.05E2,1.32E2,5.309E3,2.44E2,1.61E2,9E1,4.2E1,7.8E2,4.529E3,6.9E1,1.75E2,6.8E1,9.3E1],"tree_param":{"num_deleted":"0","num_feature":"2785","num_nodes":"15","size_leaf_vector":"1"}},{"base_weights":[-2.6827163E3,-1.6327292E4,1.6597681E5,-5.500861E4,4.709974E4,-4.839517E4,1.982047E5,-9.616296E3,4.6982134E3,2.8546846E3,3.4766633E4,-7.7045244E3,2.6497463E4,2.0598873E4,-5.7331477E4],"categories":[],"categories_nodes":[],"categories_segments":[],"categories_sizes":[],"default_left":[0,0,0,0,0,0,0,0,0,0,0,0,0,0,0],"id":22,"left_children":[1,3,5,7,9,11,13,-1,-1,-1,-1,-1,-1,-1,-1],"loss_changes":[1.3221306E13,1.3042631E13,2.980357E12,1.3864211E13,1.1220903E13,5.321649E11,2.3641635E12,0E0,0E0,0E0,0E0,0E0,0E0,0E0,0E0],"parents":[2147483647,0,0,1,1,2,2,3,3,4,4,5,5,6,6],"right_children":[2,4,6,8,10,12,14,-1,-1,-1,-1,-1,-1,-1,-1],"split_conditions":[1.4203782E0,7.0278955E-1,-6.7588896E-2,8.2914E-1,1.432289E0,3.2262733E0,3.5E-1,-9.616296E3,4.6982134E3,2.8546846E3,3.4766633E4,-7.7045244E3,2.6497463E4,2.0598873E4,-5.7331477E4],"split_indices":[12,13,18,19,16,29,47,0,0,0,0,0,0,0,0],"split_type":[0,0,0,0,0,0,0,0,0,0,0,0,0,0,0],"sum_hessian":[5.743E3,5.314E3,4.29E2,3.301E3,2.013E3,5.6E1,3.73E2,2.352E3,9.49E2,1.897E3,1.16E2,5.2E1,4E0,3.7E2,3E0],"tree_param":{"num_deleted":"0","num_feature":"2785","num_nodes":"15","size_leaf_vector":"1"}},{"base_weights":[1.413073E3,-1.7203525E4,1.246237E5,-3.0762747E5,-9.25294E3,8.610677E4,3.8092253E5,-1.8503928E4,-3.635204E4,7.970432E3,-3.0824197E3,1.9124102E3,2.2059412E4,4.4948113E4,-1.0719425E4],"categories":[],"categories_nodes":[],"categories_segments":[],"categories_sizes":[],"default_left":[0,0,0,0,0,0,0,0,0,0,0,0,0,0,0],"id":23,"left_children":[1,3,5,7,9,11,13,-1,-1,-1,-1,-1,-1,-1,-1],"loss_changes":[1.3280736E13,1.1611625E13,7.4698017E12,8.508775E11,9.399407E12,5.9592897E12,3.3611758E12,0E0,0E0,0E0,0E0,0E0,0E0,0E0,0E0],"parents":[2147483647,0,0,1,1,2,2,3,3,4,4,5,5,6,6],"right_children":[2,4,6,8,10,12,14,-1,-1,-1,-1,-1,-1,-1,-1],"split_conditions":[9.5750207E-1,2.00001E0,9.763024E-1,-2.978049E-1,-1.501981E0,7.27404E-1,6.480995E-1,-1.8503928E4,-3.635204E4,7.970432E3,-3.0824197E3,1.9124102E3,2.2059412E4,4.4948113E4,-1.0719425E4],"split_indices":[16,2729,8,12,14,13,3,0,0,0,0,0,0,0,0],"split_type":[0,0,0,0,0,0,0,0,0,0,0,0,0,0,0],"sum_hessian":[5.788E3,5.029E3,7.59E2,1.33E2,4.896E3,6.61E2,9.8E1,4.3E1,9E1,9.55E2,3.941E3,4.42E2,2.19E2,8.6E1,1.2E1],"tree_param":{"num_deleted":"0","num_feature":"2785","num_nodes":"15","size_leaf_vector":"1"}},{"base_weights":[5.6300714E2,-1.2090559E5,1.9754885E4,-7.607061E3,-1.4797914E5,-1.715511E4,8.829077E4,2.575536E4,-2.7809563E3,-3.267805E4,-1.3260174E4,-7.3012E3,1.0733819E4,-2.8978885E4,1.00449375E4],"categories":[],"categories_nodes":[],"categories_segments":[],"categories_sizes":[],"default_left":[0,0,0,0,0,0,0,0,0,0,0,0,0,0,0],"id":24,"left_children":[1,3,5,7,9,11,13,-1,-1,-1,-1,-1,-1,-1,-1],"loss_changes":[1.3549054E13,2.4313164E12,1.2697876E13,8.3212626E11,1.716349E12,2.2698114E13,8.105892E12,0E0,0E0,0E0,0E0,0E0,0E0,0E0,0E0],"parents":[2147483647,0,0,1,1,2,2,3,3,4,4,5,5,6,6],"right_children":[2,4,6,8,10,12,14,-1,-1,-1,-1,-1,-1,-1,-1],"split_conditions":[1.0156091E-1,-5.9977955E-1,7.27404E-1,-2.4519033E0,-6.6042376E-1,8.2914E-1,2.00001E0,2.575536E4,-2.7809563E3,-3.267805E4,-1.3260174E4,-7.3012E3,1.0733819E4,-2.8978885E4,1.00449375E4],"split_indices":[46,10,13,10,27,19,2729,0,0,0,0,0,0,0,0],"split_type":[0,0,0,0,0,0,0,0,0,0,0,0,0,0,0],"sum_hessian":[5.81E3,7.92E2,5.018E3,1.53E2,6.39E2,3.262E3,1.756E3,1E1,1.43E2,4.9E1,5.9E2,2.252E3,1.01E3,5.4E1,1.702E3],"tree_param":{"num_deleted":"0","num_feature":"2785","num_nodes":"15","size_leaf_vector":"1"}},{"base_weights":[1.8751615E3,-7.2128445E4,3.1057232E4,-1.1501735E5,-3.715144E4,9.285942E3,1.755043E5,3.7287993E3,-1.4465155E4,3.1969781E4,-4.846352E3,2.6867828E4,-2.929609E2,6.90789E3,2.5274723E4],"categories":[],"categories_nodes":[],"categories_segments":[],"categories_sizes":[],"default_left":[0,0,1,0,0,0,0,0,0,0,0,0,0,0,0],"id":25,"left_children":[1,3,5,7,9,11,13,-1,-1,-1,-1,-1,-1,-1,-1],"loss_changes":[1.2553709E13,2.4619338E12,1.3109037E13,3.336316E12,3.6767867E12,1.1483869E13,4.470994E12,0E0,0E0,0E0,0E0,0E0,0E0,0E0,0E0],"parents":[2147483647,0,0,1,1,2,2,3,3,4,4,5,5,6,6],"right_children":[2,4,6,8,10,12,14,-1,-1,-1,-1,-1,-1,-1,-1],"split_conditions":[-5.6632537E-1,2.00001E0,1.923077E-1,1.7227653E-1,1.1699702E-1,-1.6961894E0,6.6585565E-1,3.7287993E3,-1.4465155E4,3.1969781E4,-4.846352E3,2.6867828E4,-2.929609E2,6.90789E3,2.5274723E4],"split_indices":[16,2726,38,45,49,19,7,0,0,0,0,0,0,0,0],"split_type":[0,0,0,0,0,0,0,0,0,0,0,0,0,0,0],"sum_hessian":[5.811E3,1.643E3,4.168E3,7.37E2,9.06E2,3.623E3,5.45E2,1.2E2,6.17E2,2.7E1,8.79E2,1.62E2,3.461E3,2.3E2,3.15E2],"tree_param":{"num_deleted":"0","num_feature":"2785","num_nodes":"15","size_leaf_vector":"1"}},{"base_weights":[1.1388384E3,-4.5891402E4,3.342895E4,-6.0684656E4,5.189212E4,8.049696E3,1.3383406E5,-2.7645603E3,-1.003018E4,3.4025337E3,3.5782996E4,-6.271474E3,9.377155E3,2.0169295E4,1.8622687E2],"categories":[],"categories_nodes":[],"categories_segments":[],"categories_sizes":[],"default_left":[0,0,0,0,0,0,0,0,0,0,0,0,0,0,0],"id":26,"left_children":[1,3,5,7,9,11,13,-1,-1,-1,-1,-1,-1,-1,-1],"loss_changes":[8.7851836E12,3.4097427E12,8.7392717E12,2.675263E12,1.6823235E12,1.6620815E13,6.196801E12,0E0,0E0,0E0,0E0,0E0,0E0,0E0,0E0],"parents":[2147483647,0,0,1,1,2,2,3,3,4,4,5,5,6,6],"right_children":[2,4,6,8,10,12,14,-1,-1,-1,-1,-1,-1,-1,-1],"split_conditions":[-3.1301722E-1,3.442898E-1,6.832135E-1,2.00001E0,1.7621352E-1,6.6686106E-1,1.5131721E0,-2.7645603E3,-1.003018E4,3.4025337E3,3.5782996E4,-6.271474E3,9.377155E3,2.0169295E4,1.8622687E2],"split_indices":[16,6,49,2731,42,13,10,0,0,0,0,0,0,0,0],"split_type":[0,0,0,0,0,0,0,0,0,0,0,0,0,0,0],"sum_hessian":[5.783E3,2.354E3,3.429E3,2.045E3,3.09E2,2.738E3,6.91E2,1.116E3,9.29E2,2.93E2,1.6E1,1.5E3,1.238E3,4.56E2,2.35E2],"tree_param":{"num_deleted":"0","num_feature":"2785","num_nodes":"15","size_leaf_vector":"1"}},{"base_weights":[-1.0530009E3,-2.7095944E5,5.5791445E3,-2.948711E5,-1.22557266E5,-2.3034057E4,5.5476086E4,-2.3757201E4,-3.7467656E4,-6.850802E3,-1.4468846E4,-6.1291836E3,6.746052E3,4.0715059E3,4.2067156E4],"categories":[],"categories_nodes":[],"categories_segments":[],"categories_sizes":[],"default_left":[0,0,0,0,0,0,0,0,0,0,0,0,0,0,0],"id":27,"left_children":[1,3,5,7,9,11,13,-1,-1,-1,-1,-1,-1,-1,-1],"loss_changes":[1.0374902E13,4.5710783E11,8.07784E12,4.5514804E11,1.5207301E10,1.2453922E13,1.1098414E13,0E0,0E0,0E0,0E0,0E0,0E0,0E0,0E0],"parents":[2147483647,0,0,1,1,2,2,3,3,4,4,5,5,6,6],"right_children":[2,4,6,8,10,12,14,-1,-1,-1,-1,-1,-1,-1,-1],"split_conditions":[2.00001E0,3.5075477E-1,7.320307E-1,9.557951E0,9.3330956E-1,8.8781404E-1,8.9196026E-1,-2.3757201E4,-3.7467656E4,-6.850802E3,-1.4468846E4,-6.1291836E3,6.746052E3,4.0715059E3,4.2067156E4],"split_indices":[2729,11,13,25,13,19,7,0,0,0,0,0,0,0,0],"split_type":[0,0,0,0,0,0,0,0,0,0,0,0,0,0,0],"sum_hessian":[5.794E3,1.38E2,5.656E3,1.18E2,2E1,3.595E3,2.061E3,7.1E1,4.7E1,7E0,1.3E1,2.527E3,1.068E3,1.982E3,7.9E1],"tree_param":{"num_deleted":"0","num_feature":"2785","num_nodes":"15","size_leaf_vector":"1"}},{"base_weights":[-9.068083E1,-1.7524855E4,8.791655E4,-2.60358E4,1.4432586E5,6.879285E4,3.2612853E5,1.3784682E4,-3.2856802E3,-5.6701675E3,1.8682514E4,5.1077827E3,2.6320729E4,4.201889E4,9.753097E3],"categories":[],"categories_nodes":[],"categories_segments":[],"categories_sizes":[],"default_left":[0,0,0,0,0,1,0,0,0,0,0,0,0,0,0],"id":28,"left_children":[1,3,5,7,9,11,13,-1,-1,-1,-1,-1,-1,-1,-1],"loss_changes":[8.899141E12,6.672247E12,4.3462825E12,5.14661E12,2.0781272E12,3.0483216E12,1.4856587E12,0E0,0E0,0E0,0E0,0E0,0E0,0E0,0E0],"parents":[2147483647,0,0,1,1,2,2,3,3,4,4,5,5,6,6],"right_children":[2,4,6,8,10,12,14,-1,-1,-1,-1,-1,-1,-1,-1],"split_conditions":[1.21668994E-1,1.8178763E0,2.25E-1,-1.6961894E0,-6.7588896E-2,3.75E-1,1.2663776E-1,1.3784682E4,-3.2856802E3,-5.6701675E3,1.8682514E4,5.1077827E3,2.6320729E4,4.201889E4,9.753097E3],"split_indices":[22,12,47,19,18,37,27,0,0,0,0,0,0,0,0],"split_type":[0,0,0,0,0,0,0,0,0,0,0,0,0,0,0],"sum_hessian":[5.798E3,4.84E3,9.58E2,4.599E3,2.41E2,8.88E2,7E1,1.83E2,4.416E3,4.2E1,1.99E2,8.15E2,7.3E1,4.9E1,2.1E1],"tree_param":{"num_deleted":"0","num_feature":"2785","num_nodes":"15","size_leaf_vector":"1"}},{"base_weights":[-1.1036024E3,-1.0606871E4,1.3527998E5,-2.3105675E5,-5.1652544E3,8.535314E4,2.9940906E5,-2.5561531E4,-9.024448E3,-7.847432E3,1.0381262E3,-1.6727844E4,1.096343E4,3.9975297E4,7.0109546E3],"categories":[],"categories_nodes":[],"categories_segments":[],"categories_sizes":[],"default_left":[1,0,1,0,1,0,0,0,0,0,0,0,0,0,0],"id":29,"left_children":[1,3,5,7,9,11,13,-1,-1,-1,-1,-1,-1,-1,-1],"loss_changes":[7.54079E12,6.523451E12,3.0801406E12,4.299492E11,6.051485E12,1.8095217E12,1.9967482E12,0E0,0E0,0E0,0E0,0E0,0E0,0E0,0E0],"parents":[2147483647,0,0,1,1,2,2,3,3,4,4,5,5,6,6],"right_children":[2,4,6,8,10,12,14,-1,-1,-1,-1,-1,-1,-1,-1],"split_conditions":[2.842084E-1,2.00001E0,2.25E-1,-4.8812732E-4,1E-1,1.5E-1,6.480995E-1,-2.5561531E4,-9.024448E3,-7.847432E3,1.0381262E3,-1.6727844E4,1.096343E4,3.9975297E4,7.0109546E3],"split_indices":[46,2729,47,11,47,47,3,0,0,0,0,0,0,0,0],"split_type":[0,0,0,0,0,0,0,0,0,0,0,0,0,0,0],"sum_hessian":[5.816E3,5.438E3,3.78E2,1.3E2,5.308E3,2.91E2,8.7E1,1.1E2,2E1,9.28E2,4.38E3,2.5E1,2.66E2,6E1,2.7E1],"tree_param":{"num_deleted":"0","num_feature":"2785","num_nodes":"15","size_leaf_vector":"1"}},{"base_weights":[3.4149036E2,2.620803E4,-5.0834066E4,9.4961766E4,-1.4798837E4,-7.5475336E4,4.5320312E4,2.4464275E4,5.5688926E3,1.223865E4,-3.0625955E3,-1.1672957E4,-2.9634395E3,3.1579727E3,3.94058E4],"categories":[],"categories_nodes":[],"categories_segments":[],"categories_sizes":[],"default_left":[0,0,0,1,0,1,0,0,0,0,0,0,0,0,0],"id":30,"left_children":[1,3,5,7,9,11,13,-1,-1,-1,-1,-1,-1,-1,-1],"loss_changes":[7.680316E12,1.0867277E13,4.6189453E12,8.4512667E12,5.247313E12,2.9296878E12,1.8947164E12,0E0,0E0,0E0,0E0,0E0,0E0,0E0,0E0],"parents":[2147483647,0,0,1,1,2,2,3,3,4,4,5,5,6,6],"right_children":[2,4,6,8,10,12,14,-1,-1,-1,-1,-1,-1,-1,-1],"split_conditions":[2.00001E0,5.769231E-1,9.738434E-1,2.941589E-1,-1.3789786E0,5.244694E-1,2.022483E0,2.4464275E4,5.5688926E3,1.223865E4,-3.0625955E3,-1.1672957E4,-2.9634395E3,3.1579727E3,3.94058E4],"split_indices":[2731,38,13,49,14,49,7,0,0,0,0,0,0,0,0],"split_type":[0,0,0,0,0,0,0,0,0,0,0,0,0,0,0],"sum_hessian":[5.8E3,3.853E3,1.947E3,1.439E3,2.414E3,1.55E3,3.97E2,2.98E2,1.141E3,2.49E2,2.165E3,8.15E2,7.35E2,3.83E2,1.4E1],"tree_param":{"num_deleted":"0","num_feature":"2785","num_nodes":"15","size_leaf_vector":"1"}},{"base_weights":[6.573958E1,1.5252875E4,-8.168176E4,9.207836E4,-1.0874548E3,2.4951542E5,-9.168248E4,-1.3976827E3,1.5514815E4,-5.219771E3,4.8580103E3,-7.0092305E3,4.7362652E4,-7.440129E3,-2.3311729E4],"categories":[],"categories_nodes":[],"categories_segments":[],"categories_sizes":[],"default_left":[0,0,0,0,0,0,0,0,0,0,0,0,0,0,0],"id":31,"left_children":[1,3,5,7,9,11,13,-1,-1,-1,-1,-1,-1,-1,-1],"loss_changes":[7.226835E12,6.162632E12,3.0436135E12,5.7612934E12,1.028101E13,1.9671438E12,2.1481836E12,0E0,0E0,0E0,0E0,0E0,0E0,0E0,0E0],"parents":[2147483647,0,0,1,1,2,2,3,3,4,4,5,5,6,6],"right_children":[2,4,6,8,10,12,14,-1,-1,-1,-1,-1,-1,-1,-1],"split_conditions":[2E-2,1.17738046E-1,2.00001E0,-6.7588896E-2,6.6686106E-1,-2.4002242E-1,8.137478E-1,-1.3976827E3,1.5514815E4,-5.219771E3,4.8580103E3,-7.0092305E3,4.7362652E4,-7.440129E3,-2.3311729E4],"split_indices":[52,44,2764,18,13,8,45,0,0,0,0,0,0,0,0],"split_type":[0,0,0,0,0,0,0,0,0,0,0,0,0,0,0],"sum_hessian":[5.819E3,4.908E3,9.11E2,8.6E2,4.048E3,2.6E1,8.85E2,3.21E2,5.39E2,1.995E3,2.053E3,1.1E1,1.5E1,7.9E2,9.5E1],"tree_param":{"num_deleted":"0","num_feature":"2785","num_nodes":"15","size_leaf_vector":"1"}},{"base_weights":[-1.0734165E3,-8.0146353E3,1.8826533E5,1.5724406E5,-1.5257027E4,1.3859134E5,3.404763E5,2.6344146E4,-4.169141E3,-2.9214194E3,5.357721E3,1.8379121E4,-4.3714077E3,5.1336844E4,1.9757623E4],"categories":[],"categories_nodes":[],"categories_segments":[],"categories_sizes":[],"default_left":[0,0,0,0,0,0,0,0,0,0,0,0,0,0,0],"id":32,"left_children":[1,3,5,7,9,11,13,-1,-1,-1,-1,-1,-1,-1,-1],"loss_changes":[7.655652E12,6.727602E12,1.5103642E12,4.9968217E12,5.1741406E12,1.3017424E12,1.1338855E12,0E0,0E0,0E0,0E0,0E0,0E0,0E0,0E0],"parents":[2147483647,0,0,1,1,2,2,3,3,4,4,5,5,6,6],"right_children":[2,4,6,8,10,12,14,-1,-1,-1,-1,-1,-1,-1,-1],"split_conditions":[2.2109926E0,-1.6961894E0,2.7999813E-3,1.9591315E0,1.21668994E-1,2.00001E0,2.00001E0,2.6344146E4,-4.169141E3,-2.9214194E3,5.357721E3,1.8379121E4,-4.3714077E3,5.1336844E4,1.9757623E4],"split_indices":[29,19,39,23,22,2731,128,0,0,0,0,0,0,0,0],"split_type":[0,0,0,0,0,0,0,0,0,0,0,0,0,0,0],"sum_hessian":[5.823E3,5.618E3,2.05E2,2.35E2,5.383E3,1.56E2,4.9E1,1.53E2,8.2E1,4.476E3,9.07E2,1.25E2,3.1E1,2.1E1,2.8E1],"tree_param":{"num_deleted":"0","num_feature":"2785","num_nodes":"15","size_leaf_vector":"1"}},{"base_weights":[-2.6892935E2,-8.668108E3,1.2601864E5,-1.9961908E5,-3.8882578E3,1.9070952E5,7.61045E3,-1.5916513E4,-2.5312344E4,-5.2627124E3,1.4240002E3,2.6078639E4,1.7323635E3,9.736279E3,-5.7442036E3],"categories":[],"categories_nodes":[],"categories_segments":[],"categories_sizes":[],"default_left":[0,0,0,0,0,0,0,0,0,0,0,0,0,0,0],"id":33,"left_children":[1,3,5,7,9,11,13,-1,-1,-1,-1,-1,-1,-1,-1],"loss_changes":[6.2083784E12,5.0082155E12,2.794423E12,2.497493E11,4.732164E12,2.8629627E12,7.646124E11,0E0,0E0,0E0,0E0,0E0,0E0,0E0,0E0],"parents":[2147483647,0,0,1,1,2,2,3,3,4,4,5,5,6,6],"right_children":[2,4,6,8,10,12,14,-1,-1,-1,-1,-1,-1,-1,-1],"split_conditions":[1.6723349E0,2.00001E0,7.1957284E-1,9.557951E0,1.1960267E-1,9.522369E-1,6.0471397E-2,-1.5916513E4,-2.5312344E4,-5.2627124E3,1.4240002E3,2.6078639E4,1.7323635E3,9.736279E3,-5.7442036E3],"split_indices":[16,2729,4,25,46,14,42,0,0,0,0,0,0,0,0],"split_type":[0,0,0,0,0,0,0,0,0,0,0,0,0,0,0],"sum_hessian":[5.851E3,5.487E3,3.64E2,1.33E2,5.354E3,2.35E2,1.29E2,7.8E1,5.5E1,1.451E3,3.903E3,1.67E2,6.8E1,5.4E1,7.5E1],"tree_param":{"num_deleted":"0","num_feature":"2785","num_nodes":"15","size_leaf_vector":"1"}},{"base_weights":[-7.0121356E2,2.1039295E4,-4.57045E4,-1.014335E4,8.452006E4,-6.803086E4,4.3136117E4,9.933823E3,-4.513514E3,6.9661924E3,4.8643668E4,-1.9422283E4,-5.6171255E3,2.7106497E3,4.0811953E4],"categories":[],"categories_nodes":[],"categories_segments":[],"categories_sizes":[],"default_left":[0,0,0,0,0,0,0,0,0,0,0,0,0,0,0],"id":34,"left_children":[1,3,5,7,9,11,13,-1,-1,-1,-1,-1,-1,-1,-1],"loss_changes":[5.704022E12,7.782266E12,3.769577E12,1.0106716E13,7.699512E12,2.2609092E12,2.2238462E12,0E0,0E0,0E0,0E0,0E0,0E0,0E0,0E0],"parents":[2147483647,0,0,1,1,2,2,3,3,4,4,5,5,6,6],"right_children":[2,4,6,8,10,12,14,-1,-1,-1,-1,-1,-1,-1,-1],"split_conditions":[2.00001E0,6.608666E-1,9.738434E-1,-1.4856004E0,-5.0962365E-1,2.00001E0,2.2485876E0,9.933823E3,-4.513514E3,6.9661924E3,4.8643668E4,-1.9422283E4,-5.6171255E3,2.7106497E3,4.0811953E4],"split_indices":[2731,13,13,14,15,2729,7,0,0,0,0,0,0,0,0],"split_type":[0,0,0,0,0,0,0,0,0,0,0,0,0,0,0],"sum_hessian":[5.828E3,3.93E3,1.898E3,2.636E3,1.294E3,1.517E3,3.81E2,6.38E2,1.998E3,1.249E3,4.5E1,1.29E2,1.388E3,3.66E2,1.5E1],"tree_param":{"num_deleted":"0","num_feature":"2785","num_nodes":"15","size_leaf_vector":"1"}},{"base_weights":[-7.5821027E2,-1.1193499E4,8.332203E4,4.938847E1,-1.4466473E5,2.1731316E5,5.081973E4,2.0922834E3,-4.9337017E3,-1.1030365E4,-2.089175E4,3.6756707E4,7.951392E3,3.4581238E3,3.360781E4],"categories":[],"categories_nodes":[],"categories_segments":[],"categories_sizes":[],"default_left":[1,0,0,0,0,0,0,0,0,0,0,0,0,0,0],"id":35,"left_children":[1,3,5,7,9,11,13,-1,-1,-1,-1,-1,-1,-1,-1],"loss_changes":[5.1416285E12,7.8226464E12,2.8066542E12,4.9584595E12,8.711124E11,2.5795877E12,2.4063687E12,0E0,0E0,0E0,0E0,0E0,0E0,0E0,0E0],"parents":[2147483647,0,0,1,1,2,2,3,3,4,4,5,5,6,6],"right_children":[2,4,6,8,10,12,14,-1,-1,-1,-1,-1,-1,-1,-1],"split_conditions":[8.390656E-1,9.522369E-1,2.00001E0,2.00001E0,2.108399E-1,2.00001E0,3.0142992E0,2.0922834E3,-4.9337017E3,-1.1030365E4,-2.089175E4,3.6756707E4,7.951392E3,3.4581238E3,3.360781E4],"split_indices":[43,14,70,2731,16,2731,1,0,0,0,0,0,0,0,0],"split_type":[0,0,0,0,0,0,0,0,0,0,0,0,0,0,0],"sum_hessian":[5.858E3,5.212E3,6.46E2,4.808E3,4.04E2,1.25E2,5.21E2,3.38E3,1.428E3,2.65E2,1.39E2,5.9E1,6.6E1,4.94E2,2.7E1],"tree_param":{"num_deleted":"0","num_feature":"2785","num_nodes":"15","size_leaf_vector":"1"}},{"base_weights":[5.7392926E2,1.3492664E5,-5.035237E3,2.5053403E5,-1.6005733E4,-1.4260959E4,8.772521E4,2.8687766E4,4.4200986E2,-8.0126157E3,2.6831645E4,-2.6859805E3,6.365109E3,6.3086636E3,1.6980555E4],"categories":[],"categories_nodes":[],"categories_segments":[],"categories_sizes":[],"default_left":[0,0,0,0,0,0,1,0,0,0,0,0,0,0,0],"id":36,"left_children":[1,3,5,7,9,11,13,-1,-1,-1,-1,-1,-1,-1,-1],"loss_changes":[4.381395E12,4.0696031E12,4.7773705E12,1.1794283E12,1.8810465E12,4.985303E12,1.01057036E12,0E0,0E0,0E0,0E0,0E0,0E0,0E0,0E0],"parents":[2147483647,0,0,1,1,2,2,3,3,4,4,5,5,6,6],"right_children":[2,4,6,8,10,12,14,-1,-1,-1,-1,-1,-1,-1,-1],"split_conditions":[-1.6961894E0,2.00001E0,1.3936363E-1,1.0242428E0,7.267397E-1,9.763024E-1,2.36225E-1,2.8687766E4,4.4200986E2,-8.0126157E3,2.6831645E4,-2.6859805E3,6.365109E3,6.3086636E3,1.6980555E4],"split_indices":[19,2731,59,13,16,8,59,0,0,0,0,0,0,0,0],"split_type":[0,0,0,0,0,0,0,0,0,0,0,0,0,0,0],"sum_hessian":[5.812E3,2.32E2,5.58E3,1.31E2,1.01E2,5.076E3,5.04E2,1.14E2,1.7E1,8.3E1,1.8E1,4.37E3,7.06E2,3.89E2,1.15E2],"tree_param":{"num_deleted":"0","num_feature":"2785","num_nodes":"15","size_leaf_vector":"1"}},{"base_weights":[2.1876836E3,1.4577346E4,-6.300089E4,5.2613403E3,1.0887394E5,2.4489506E5,-6.868356E4,1.5126852E4,-1.3453136E2,5.148134E4,8.4097705E3,-2.5603306E3,3.300948E4,1.8078396E4,-7.506765E3],"categories":[],"categories_nodes":[],"categories_segments":[],"categories_sizes":[],"default_left":[0,0,0,0,0,0,0,0,0,0,0,0,0,0,0],"id":37,"left_children":[1,3,5,7,9,11,13,-1,-1,-1,-1,-1,-1,-1,-1],"loss_changes":[4.682949E12,4.2793204E12,1.6370156E12,4.278288E12,4.3619571E12,4.0024028E11,1.4628576E12,0E0,0E0,0E0,0E0,0E0,0E0,0E0,0E0],"parents":[2147483647,0,0,1,1,2,2,3,3,4,4,5,5,6,6],"right_children":[2,4,6,8,10,12,14,-1,-1,-1,-1,-1,-1,-1,-1],"split_conditions":[1.1833333E-1,1.570274E0,2.00001E0,1.1699702E-1,-1.5893033E-1,-2.7797806E-1,2.00001E0,1.5126852E4,-1.3453136E2,5.148134E4,8.4097705E3,-2.5603306E3,3.300948E4,1.8078396E4,-7.506765E3],"split_indices":[52,7,2753,49,19,1,2764,0,0,0,0,0,0,0,0],"split_type":[0,0,0,0,0,0,0,0,0,0,0,0,0,0,0],"sum_hessian":[5.796E3,4.871E3,9.25E2,4.434E3,4.37E2,1.6E1,9.09E2,1.91E2,4.243E3,2.4E1,4.13E2,4E0,1.2E1,2.2E1,8.87E2],"tree_param":{"num_deleted":"0","num_feature":"2785","num_nodes":"15","size_leaf_vector":"1"}},{"base_weights":[6.877903E2,-3.8894887E4,2.1414463E4,-2.1283864E5,-3.3573824E4,9.2739875E4,7.218972E3,-2.3234549E4,-7.8651094E3,-5.176853E3,1.3317661E3,1.8072389E4,7.670509E1,-3.1395186E3,5.6128765E3],"categories":[],"categories_nodes":[],"categories_segments":[],"categories_sizes":[],"default_left":[0,0,0,0,0,0,0,0,0,0,0,0,0,0,0],"id":38,"left_children":[1,3,5,7,9,11,13,-1,-1,-1,-1,-1,-1,-1,-1],"loss_changes":[4.760073E12,1.8384316E12,3.8549277E12,1.3616284E11,1.6524394E12,5.114093E12,6.001877E12,0E0,0E0,0E0,0E0,0E0,0E0,0E0,0E0],"parents":[2147483647,0,0,1,1,2,2,3,3,4,4,5,5,6,6],"right_children":[2,4,6,8,10,12,14,-1,-1,-1,-1,-1,-1,-1,-1],"split_conditions":[-4.4298685E-1,-6.6042376E-1,-1.4856004E0,-1.0688515E0,8.1348103E-1,1.4706347E0,7.678778E-1,-2.3234549E4,-7.8651094E3,-5.176853E3,1.3317661E3,1.8072389E4,7.670509E1,-3.1395186E3,5.6128765E3],"split_indices":[16,27,14,17,43,10,43,0,0,0,0,0,0,0,0],"split_type":[0,0,0,0,0,0,0,0,0,0,0,0,0,0,0],"sum_hessian":[5.8E3,1.993E3,3.807E3,5.8E1,1.935E3,6.31E2,3.176E3,5E1,8E0,1.394E3,5.41E2,3.22E2,3.09E2,1.775E3,1.401E3],"tree_param":{"num_deleted":"0","num_feature":"2785","num_nodes":"15","size_leaf_vector":"1"}},{"base_weights":[4.5087344E2,-4.223592E4,1.8060354E4,-2.9318553E5,-3.6670664E4,1.1267634E4,1.7228772E5,-2.0125682E2,-3.8670496E4,-7.866943E3,-1.0780603E3,2.0736292E1,9.087835E3,1.5137073E4,6.5267094E4],"categories":[],"categories_nodes":[],"categories_segments":[],"categories_sizes":[],"default_left":[1,0,0,0,0,0,0,0,0,0,0,0,0,0,0],"id":39,"left_children":[1,3,5,7,9,11,13,-1,-1,-1,-1,-1,-1,-1,-1],"loss_changes":[4.4064304E12,2.3802274E12,4.3456948E12,1.00674385E12,1.8215514E12,3.5009135E12,1.6596347E12,0E0,0E0,0E0,0E0,0E0,0E0,0E0,0E0],"parents":[2147483647,0,0,1,1,2,2,3,3,4,4,5,5,6,6],"right_children":[2,4,6,8,10,12,14,-1,-1,-1,-1,-1,-1,-1,-1],"split_conditions":[3.3333334E-3,2.00001E0,2.1926272E0,-4.3338308E-1,1E-1,9.738434E-1,2.9667263E0,-2.0125682E2,-3.8670496E4,-7.866943E3,-1.0780603E3,2.0736292E1,9.087835E3,1.5137073E4,6.5267094E4],"split_indices":[52,2728,8,12,47,13,16,0,0,0,0,0,0,0,0],"split_type":[0,0,0,0,0,0,0,0,0,0,0,0,0,0,0],"sum_hessian":[5.86E3,1.711E3,4.149E3,3.6E1,1.675E3,3.975E3,1.74E2,9E0,2.7E1,6.38E2,1.037E3,3.491E3,4.84E2,1.68E2,6E0],"tree_param":{"num_deleted":"0","num_feature":"2785","num_nodes":"15","size_leaf_vector":"1"}},{"base_weights":[1.3700853E3,-5.209262E3,9.7153984E4,-1.4876093E4,5.4675777E4,4.8213664E4,1.7498773E5,-2.646963E3,6.3726987E3,1.5087734E3,2.2024568E4,1.6320961E3,2.000933E4,5.4045695E4,1.4661974E4],"categories":[],"categories_nodes":[],"categories_segments":[],"categories_sizes":[],"default_left":[0,0,0,0,0,0,0,0,0,0,0,0,0,0,0],"id":40,"left_children":[1,3,5,7,9,11,13,-1,-1,-1,-1,-1,-1,-1,-1],"loss_changes":[3.6669838E12,3.1529157E12,1.416207E12,4.2747148E12,4.958501E12,1.1156642E12,1.413697E12,0E0,0E0,0E0,0E0,0E0,0E0,0E0,0E0],"parents":[2147483647,0,0,1,1,2,2,3,3,4,4,5,5,6,6],"right_children":[2,4,6,8,10,12,14,-1,-1,-1,-1,-1,-1,-1,-1],"split_conditions":[1.7928164E0,6.6585565E-1,6.571839E-1,1.0374383E0,2.00001E0,1.3165255E0,5.7517055E-2,-2.646963E3,6.3726987E3,1.5087734E3,2.2024568E4,1.6320961E3,2.000933E4,5.4045695E4,1.4661974E4],"split_indices":[17,7,13,28,2766,19,14,0,0,0,0,0,0,0,0],"split_type":[0,0,0,0,0,0,0,0,0,0,0,0,0,0,0],"sum_hessian":[5.817E3,5.444E3,3.73E2,4.688E3,7.56E2,2.3E2,1.43E2,4.086E3,6.02E2,6.11E2,1.45E2,1.91E2,3.9E1,9E0,1.34E2],"tree_param":{"num_deleted":"0","num_feature":"2785","num_nodes":"15","size_leaf_vector":"1"}},{"base_weights":[1.6073757E3,-1.6182706E5,5.336396E3,-1.15659516E5,-2.2551673E5,-3.733557E4,1.9751357E4,-1.7099148E4,-4.279476E3,-5.597531E3,-2.5378535E4,-1.0733476E4,-2.2308687E3,1.5447518E4,1.4123536E3],"categories":[],"categories_nodes":[],"categories_segments":[],"categories_sizes":[],"default_left":[0,0,0,0,0,0,1,0,0,0,0,0,0,0,0],"id":41,"left_children":[1,3,5,7,9,11,13,-1,-1,-1,-1,-1,-1,-1,-1],"loss_changes":[3.5789464E12,3.591087E11,3.532111E12,3.071589E11,2.4460001E11,1.5228164E12,3.2520185E12,0E0,0E0,0E0,0E0,0E0,0E0,0E0,0E0],"parents":[2147483647,0,0,1,1,2,2,3,3,4,4,5,5,6,6],"right_children":[2,4,6,8,10,12,14,-1,-1,-1,-1,-1,-1,-1,-1],"split_conditions":[2.00001E0,9.557951E0,1.1899453E-1,-3.3362645E-1,-4.1263202E-1,7.824853E-2,1.1699702E-1,-1.7099148E4,-4.279476E3,-5.597531E3,-2.5378535E4,-1.0733476E4,-2.2308687E3,1.5447518E4,1.4123536E3],"split_indices":[2729,25,46,14,12,46,49,0,0,0,0,0,0,0,0],"split_type":[0,0,0,0,0,0,0,0,0,0,0,0,0,0,0],"sum_hessian":[5.87E3,1.3E2,5.74E3,7.7E1,5.3E1,1.449E3,4.291E3,4.3E1,3.4E1,8E0,4.5E1,2.55E2,1.194E3,1.71E2,4.12E3],"tree_param":{"num_deleted":"0","num_feature":"2785","num_nodes":"15","size_leaf_vector":"1"}},{"base_weights":[-8.8416626E2,-7.985831E3,8.91444E4,-1.5435684E5,-4.3264297E3,2.0381406E4,1.5136986E5,-7.3112134E3,-1.8642266E4,5.9992383E4,-5.1273065E2,6.5378164E3,-1.4961525E4,2.9540988E4,1.1248644E4],"categories":[],"categories_nodes":[],"categories_segments":[],"categories_sizes":[],"default_left":[0,0,0,0,0,0,0,0,0,0,0,0,0,0,0],"id":42,"left_children":[1,3,5,7,9,11,13,-1,-1,-1,-1,-1,-1,-1,-1],"loss_changes":[3.733892E12,2.8986987E12,1.8239657E12,3.30254E11,2.5591936E12,1.5702384E12,1.221343E12,0E0,0E0,0E0,0E0,0E0,0E0,0E0,0E0],"parents":[2147483647,0,0,1,1,2,2,3,3,4,4,5,5,6,6],"right_children":[2,4,6,8,10,12,14,-1,-1,-1,-1,-1,-1,-1,-1],"split_conditions":[1.5251244E0,2.00001E0,2E-1,-2.978049E-1,2.00001E0,1E-2,-1.1704704E0,-7.3112134E3,-1.8642266E4,5.9992383E4,-5.1273065E2,6.5378164E3,-1.4961525E4,2.9540988E4,1.1248644E4],"split_indices":[16,2729,47,12,2756,52,19,0,0,0,0,0,0,0,0],"split_type":[0,0,0,0,0,0,0,0,0,0,0,0,0,0,0],"sum_hessian":[5.838E3,5.412E3,4.26E2,1.31E2,5.281E3,2.03E2,2.23E2,3.8E1,9.3E1,6E0,5.275E3,1.61E2,4.2E1,4.6E1,1.77E2],"tree_param":{"num_deleted":"0","num_feature":"2785","num_nodes":"15","size_leaf_vector":"1"}},{"base_weights":[1.1108009E3,1.797877E4,-3.420007E4,6.1363277E4,-8.193914E3,-5.3236156E4,1.9270734E4,1.7065637E4,3.394186E3,1.805128E4,-1.4395824E3,4.846189E3,-6.6486523E3,1.3427928E3,3.3199184E4],"categories":[],"categories_nodes":[],"categories_segments":[],"categories_sizes":[],"default_left":[0,0,0,0,0,0,0,0,0,0,0,0,0,0,0],"id":43,"left_children":[1,3,5,7,9,11,13,-1,-1,-1,-1,-1,-1,-1,-1],"loss_changes":[3.4546304E12,4.4572973E12,1.9095414E12,4.4207335E12,2.8687663E12,1.866865E12,8.963361E11,0E0,0E0,0E0,0E0,0E0,0E0,0E0,0E0],"parents":[2147483647,0,0,1,1,2,2,3,3,4,4,5,5,6,6],"right_children":[2,4,6,8,10,12,14,-1,-1,-1,-1,-1,-1,-1,-1],"split_conditions":[2.00001E0,5.769231E-1,1.0374383E0,2.941589E-1,-1.6497315E0,2.00001E0,2.6908724E0,1.7065637E4,3.394186E3,1.805128E4,-1.4395824E3,4.846189E3,-6.6486523E3,1.3427928E3,3.3199184E4],"split_indices":[2731,38,28,49,14,2730,16,0,0,0,0,0,0,0,0],"split_type":[0,0,0,0,0,0,0,0,0,0,0,0,0,0,0],"sum_hessian":[5.798E3,3.924E3,1.874E3,1.476E3,2.448E3,1.382E3,4.92E2,2.95E2,1.181E3,7.7E1,2.371E3,1.59E2,1.223E3,4.84E2,8E0],"tree_param":{"num_deleted":"0","num_feature":"2785","num_nodes":"15","size_leaf_vector":"1"}},{"base_weights":[9.454668E2,-2.7931587E3,1.6306903E5,-5.6916145E4,7.299683E3,1.5917193E4,2.5080711E5,4.2658237E3,-7.6915127E3,-7.32702E2,6.12867E3,7.174418E3,-3.3726918E4,1.853913E3,3.112689E4],"categories":[],"categories_nodes":[],"categories_segments":[],"categories_sizes":[],"default_left":[0,0,0,0,0,0,0,0,0,0,0,0,0,0,0],"id":44,"left_children":[1,3,5,7,9,11,13,-1,-1,-1,-1,-1,-1,-1,-1],"loss_changes":[3.5226148E12,3.1036885E12,1.687325E12,1.7815893E12,3.782093E12,1.0100635E12,1.1457832E12,0E0,0E0,0E0,0E0,0E0,0E0,0E0,0E0],"parents":[2147483647,0,0,1,1,2,2,3,3,4,4,5,5,6,6],"right_children":[2,4,6,8,10,12,14,-1,-1,-1,-1,-1,-1,-1,-1],"split_conditions":[2.4746983E0,-1.3370988E-1,9.94454E-3,8.7903225E-1,6.832135E-1,9.878339E-1,1.15384616E-1,4.2658237E3,-7.6915127E3,-7.32702E2,6.12867E3,7.174418E3,-3.3726918E4,1.853913E3,3.112689E4],"split_indices":[16,22,28,57,49,12,38,0,0,0,0,0,0,0,0],"split_type":[0,0,0,0,0,0,0,0,0,0,0,0,0,0,0],"sum_hessian":[5.81E3,5.68E3,1.3E2,8.92E2,4.788E3,4.9E1,8.1E1,1.49E2,7.43E2,3.768E3,1.02E3,4.3E1,6E0,1.7E1,6.4E1],"tree_param":{"num_deleted":"0","num_feature":"2785","num_nodes":"15","size_leaf_vector":"1"}},{"base_weights":[1.703992E3,1.7407398E4,-3.0752262E4,9.26346E4,1.811523E3,4.659967E4,-4.391077E4,1.6237753E4,2.740937E3,-3.4871582E2,1.9045994E4,3.4879355E4,3.1599219E3,4.4215713E3,-5.5255405E3],"categories":[],"categories_nodes":[],"categories_segments":[],"categories_sizes":[],"default_left":[0,1,0,0,0,0,0,0,0,0,0,0,0,0,0],"id":45,"left_children":[1,3,5,7,9,11,13,-1,-1,-1,-1,-1,-1,-1,-1],"loss_changes":[2.9729528E12,4.6118155E12,1.9379703E12,3.0661227E12,3.2563218E12,1.2446318E12,1.6280571E12,0E0,0E0,0E0,0E0,0E0,0E0,0E0,0E0],"parents":[2147483647,0,0,1,1,2,2,3,3,4,4,5,5,6,6],"right_children":[2,4,6,8,10,12,14,-1,-1,-1,-1,-1,-1,-1,-1],"split_conditions":[2.00001E0,3.0099982E-1,1.5437406E-1,4.2307693E-1,2.8498957E0,8.223719E-1,2.00001E0,1.6237753E4,2.740937E3,-3.4871582E2,1.9045994E4,3.4879355E4,3.1599219E3,4.4215713E3,-5.5255405E3],"split_indices":[2731,49,45,38,12,14,2730,0,0,0,0,0,0,0,0],"split_type":[0,0,0,0,0,0,0,0,0,0,0,0,0,0,0],"sum_hessian":[5.831E3,3.93E3,1.901E3,6.74E2,3.256E3,2.76E2,1.625E3,3.25E2,3.49E2,3.168E3,8.8E1,1.2E1,2.64E2,1.85E2,1.44E3],"tree_param":{"num_deleted":"0","num_feature":"2785","num_nodes":"15","size_leaf_vector":"1"}},{"base_weights":[2.392802E3,-6.420982E3,5.808752E4,-1.1624683E4,1.119814E5,2.3097973E5,2.7338992E4,1.1610175E4,-1.6824686E3,1.9320883E4,-6.2229E1,3.582631E4,1.197249E4,5.131367E4,1.8464885E3],"categories":[],"categories_nodes":[],"categories_segments":[],"categories_sizes":[],"default_left":[0,1,0,0,0,0,0,0,0,0,0,0,0,0,0],"id":46,"left_children":[1,3,5,7,9,11,13,-1,-1,-1,-1,-1,-1,-1,-1],"loss_changes":[2.8347211E12,3.0733288E12,4.1881525E12,3.174731E12,1.9208872E12,1.642252E12,2.8832207E12,0E0,0E0,0E0,0E0,0E0,0E0,0E0,0E0],"parents":[2147483647,0,0,1,1,2,2,3,3,4,4,5,5,6,6],"right_children":[2,4,6,8,10,12,14,-1,-1,-1,-1,-1,-1,-1,-1],"split_conditions":[9.763024E-1,7.910893E-1,8.7903225E-1,1.1699702E-1,3.5142198E-1,2.00001E0,2.0347308E-1,1.1610175E4,-1.6824686E3,1.9320883E4,-6.2229E1,3.582631E4,1.197249E4,5.131367E4,1.8464885E3],"split_indices":[8,49,57,49,43,2731,49,0,0,0,0,0,0,0,0],"split_type":[0,0,0,0,0,0,0,0,0,0,0,0,0,0,0],"sum_hessian":[5.773E3,4.985E3,7.88E2,4.776E3,2.09E2,1.18E2,6.7E2,1.86E2,4.59E3,1.21E2,8.8E1,5.4E1,6.4E1,1.1E1,6.59E2],"tree_param":{"num_deleted":"0","num_feature":"2785","num_nodes":"15","size_leaf_vector":"1"}},{"base_weights":[3.4987E2,-5.546491E3,7.987691E4,-9.813968E3,1.0827382E5,4.9331703E4,1.8900138E5,-3.922943E3,2.5431786E2,6.307982E3,2.8975004E4,8.40155E3,-1.9524481E3,2.5520809E4,-9.200539E2],"categories":[],"categories_nodes":[],"categories_segments":[],"categories_sizes":[],"default_left":[0,0,0,0,0,0,0,0,0,0,0,0,0,0,0],"id":47,"left_children":[1,3,5,7,9,11,13,-1,-1,-1,-1,-1,-1,-1,-1],"loss_changes":[2.7445635E12,2.6477808E12,1.3373006E12,1.9095189E12,1.597445E12,7.5869775E11,1.1571102E12,0E0,0E0,0E0,0E0,0E0,0E0,0E0,0E0],"parents":[2147483647,0,0,1,1,2,2,3,3,4,4,5,5,6,6],"right_children":[2,4,6,8,10,12,14,-1,-1,-1,-1,-1,-1,-1,-1],"split_conditions":[1.5251244E0,1.9063294E-1,2.25E-1,-6.020445E-3,2.7999813E-3,5.683904E-1,4.914636E0,-3.922943E3,2.5431786E2,6.307982E3,2.8975004E4,8.40155E3,-1.9524481E3,2.5520809E4,-9.200539E2],"split_indices":[16,59,47,22,39,2,17,0,0,0,0,0,0,0,0],"split_type":[0,0,0,0,0,0,0,0,0,0,0,0,0,0,0],"sum_hessian":[5.851E3,5.448E3,4.03E2,5.252E3,1.96E2,3.16E2,8.7E1,1.553E3,3.699E3,1.58E2,3.8E1,2.1E2,1.06E2,6.5E1,2.2E1],"tree_param":{"num_deleted":"0","num_feature":"2785","num_nodes":"15","size_leaf_vector":"1"}},{"base_weights":[-1.5843718E3,7.498299E3,-4.9632926E4,6.213416E4,-4.2864355E3,-3.371363E4,-1.6922952E5,1.4737569E4,1.3749833E3,-3.2096033E3,2.3429285E3,7.022508E2,-7.9520464E3,-4.694036E3,-2.314206E4],"categories":[],"categories_nodes":[],"categories_segments":[],"categories_sizes":[],"default_left":[0,1,0,0,0,0,0,0,0,0,0,0,0,0,0],"id":48,"left_children":[1,3,5,7,9,11,13,-1,-1,-1,-1,-1,-1,-1,-1],"loss_changes":[2.5529295E12,3.1681025E12,1.7649157E12,3.598534E12,3.1208007E12,1.5344049E12,8.1811394E11,0E0,0E0,0E0,0E0,0E0,0E0,0E0,0E0],"parents":[2147483647,0,0,1,1,2,2,3,3,4,4,5,5,6,6],"right_children":[2,4,6,8,10,12,14,-1,-1,-1,-1,-1,-1,-1,-1],"split_conditions":[2E-2,1.17738046E-1,8.128869E-1,1.4504488E0,6.6686106E-1,6.282212E-1,9.636991E-1,1.4737569E4,1.3749833E3,-3.2096033E3,2.3429285E3,7.022508E2,-7.9520464E3,-4.694036E3,-2.314206E4],"split_indices":[52,44,45,10,13,44,19,0,0,0,0,0,0,0,0],"split_type":[0,0,0,0,0,0,0,0,0,0,0,0,0,0,0],"sum_hessian":[5.848E3,4.919E3,9.29E2,8.72E2,4.047E3,8.21E2,1.08E2,3.15E2,5.57E2,2.02E3,2.027E3,4.35E2,3.86E2,3.7E1,7.1E1],"tree_param":{"num_deleted":"0","num_feature":"2785","num_nodes":"15","size_leaf_vector":"1"}},{"base_weights":[-2.164904E3,-4.5235375E4,6.1393423E3,-1.7168367E5,-3.8254164E4,2.9489766E3,1.4210236E5,-2.182614E4,-1.4681653E4,4.7397775E2,-5.7362524E3,1.1811165E3,-4.7639336E3,1.6347224E4,-4.7575254E4],"categories":[],"categories_nodes":[],"categories_segments":[],"categories_sizes":[],"default_left":[0,0,0,0,0,0,0,0,0,0,0,0,0,0,0],"id":49,"left_children":[1,3,5,7,9,11,13,-1,-1,-1,-1,-1,-1,-1,-1],"loss_changes":[2.0844079E12,8.249942E11,2.1189898E12,2.4710218E10,7.3473196E11,2.1413054E12,1.5565628E12,0E0,0E0,0E0,0E0,0E0,0E0,0E0,0E0],"parents":[2147483647,0,0,1,1,2,2,3,3,4,4,5,5,6,6],"right_children":[2,4,6,8,10,12,14,-1,-1,-1,-1,-1,-1,-1,-1],"split_conditions":[-2.883966E-1,-6.6042376E-1,2.8498957E0,-9.287931E-1,2.1637352E-1,9.707714E-1,5.5552015E0,-2.182614E4,-1.4681653E4,4.7397775E2,-5.7362524E3,1.1811165E3,-4.7639336E3,1.6347224E4,-4.7575254E4],"split_indices":[17,27,12,18,45,14,26,0,0,0,0,0,0,0,0],"split_type":[0,0,0,0,0,0,0,0,0,0,0,0,0,0,0],"sum_hessian":[5.826E3,9.41E2,4.885E3,4.8E1,8.93E2,4.774E3,1.11E2,1.4E1,3.4E1,2.75E2,6.18E2,4.063E3,7.11E2,1.08E2,3E0],"tree_param":{"num_deleted":"0","num_feature":"2785","num_nodes":"15","size_leaf_vector":"1"}},{"base_weights":[-1.05575714E2,-2.8013784E3,1.5323592E5,-1.2774799E5,1.8252182E2,-2.0060688E5,1.7769555E5,-4.040625E3,-1.504382E4,-5.849635E2,4.947441E3,2.9775537E3,-3.808376E4,2.1853816E4,-9.161071E2],"categories":[],"categories_nodes":[],"categories_segments":[],"categories_sizes":[],"default_left":[0,0,1,0,0,0,0,0,0,0,0,0,0,0,0],"id":50,"left_children":[1,3,5,7,9,11,13,-1,-1,-1,-1,-1,-1,-1,-1],"loss_changes":[2.416626E12,2.1419215E12,9.097875E11,2.5948298E11,1.6689411E12,3.019936E11,7.2701497E11,0E0,0E0,0E0,0E0,0E0,0E0,0E0,0E0],"parents":[2147483647,0,0,1,1,2,2,3,3,4,4,5,5,6,6],"right_children":[2,4,6,8,10,12,14,-1,-1,-1,-1,-1,-1,-1,-1],"split_conditions":[2.3131196E0,2.00001E0,3.3333334E-1,-3.884343E-1,9.738434E-1,3.0933764E-2,8.720191E-1,-4.040625E3,-1.504382E4,-5.849635E2,4.947441E3,2.9775537E3,-3.808376E4,2.1853816E4,-9.161071E2],"split_indices":[17,2729,58,21,13,2,44,0,0,0,0,0,0,0,0],"split_type":[0,0,0,0,0,0,0,0,0,0,0,0,0,0,0],"sum_hessian":[5.844E3,5.744E3,1E2,1.33E2,5.611E3,6E0,9.4E1,2.8E1,1.05E2,5E3,6.11E2,3E0,3E0,7.7E1,1.7E1],"tree_param":{"num_deleted":"0","num_feature":"2785","num_nodes":"15","size_leaf_vector":"1"}},{"base_weights":[-7.230533E2,1.2516461E4,-2.7768914E4,5.1103857E3,1.1274104E5,2.1352412E4,-4.8565484E4,-1.723274E3,4.6205215E3,1.7561137E4,-4.259463E2,1.7308466E3,3.441287E4,-1.231949E4,-3.3221978E3],"categories":[],"categories_nodes":[],"categories_segments":[],"categories_sizes":[],"default_left":[0,0,1,0,0,0,0,0,0,0,0,0,0,0,0],"id":51,"left_children":[1,3,5,7,9,11,13,-1,-1,-1,-1,-1,-1,-1,-1],"loss_changes":[2.085413E12,2.9017026E12,1.9562932E12,3.3448334E12,1.979474E12,7.3805916E11,1.5360362E12,0E0,0E0,0E0,0E0,0E0,0E0,0E0,0E0],"parents":[2147483647,0,0,1,1,2,2,3,3,4,4,5,5,6,6],"right_children":[2,4,6,8,10,12,14,-1,-1,-1,-1,-1,-1,-1,-1],"split_conditions":[2.00001E0,7.910893E-1,6.403808E-2,7.665323E-1,-1.3613471E0,3.2262733E0,9.385769E-2,-1.723274E3,4.6205215E3,1.7561137E4,-4.259463E2,1.7308466E3,3.441287E4,-1.231949E4,-3.3221978E3],"split_indices":[2731,49,42,43,14,29,46,0,0,0,0,0,0,0,0],"split_type":[0,0,0,0,0,0,0,0,0,0,0,0,0,0,0],"sum_hessian":[5.822E3,3.909E3,1.913E3,3.641E3,2.68E2,5.69E2,1.344E3,2.359E3,1.282E3,1.74E2,9.4E1,5.63E2,6E0,2.28E2,1.116E3],"tree_param":{"num_deleted":"0","num_feature":"2785","num_nodes":"15","size_leaf_vector":"1"}},{"base_weights":[-2.6706301E3,-4.2154246E4,5.216905E3,-3.623991E4,-1.5048981E5,1.361449E4,-4.4696867E4,-1.2256228E3,-6.756794E3,-1.8369238E4,1.2361103E4,-1.786119E3,3.1165183E3,-1.2308129E4,3.0747087E3],"categories":[],"categories_nodes":[],"categories_segments":[],"categories_sizes":[],"default_left":[0,0,1,0,0,0,0,0,0,0,0,0,0,0,0],"id":52,"left_children":[1,3,5,7,9,11,13,-1,-1,-1,-1,-1,-1,-1,-1],"loss_changes":[1.8180275E12,6.1733877E11,2.0402175E12,6.926783E11,4.7774892E11,2.3019378E12,4.1492393E12,0E0,0E0,0E0,0E0,0E0,0E0,0E0,0E0],"parents":[2147483647,0,0,1,1,2,2,3,3,4,4,5,5,6,6],"right_children":[2,4,6,8,10,12,14,-1,-1,-1,-1,-1,-1,-1,-1],"split_conditions":[1.0703426E-1,9.878339E-1,8.7772006E-1,-9.0097535E-1,3.7130332E0,-1.4364398E-1,2.00001E0,-1.2256228E3,-6.756794E3,-1.8369238E4,1.2361103E4,-1.786119E3,3.1165183E3,-1.2308129E4,3.0747087E3],"split_indices":[46,12,44,21,8,1,70,0,0,0,0,0,0,0,0],"split_type":[0,0,0,0,0,0,0,0,0,0,0,0,0,0,0],"sum_hessian":[5.836E3,9.71E2,4.865E3,9.22E2,4.9E1,4.165E3,7E2,5.23E2,3.99E2,4.4E1,5E0,1.491E3,2.674E3,3.43E2,3.57E2],"tree_param":{"num_deleted":"0","num_feature":"2785","num_nodes":"15","size_leaf_vector":"1"}},{"base_weights":[2.9100488E2,-1.1147075E5,3.031652E3,-1.2829245E5,1.7785816E4,-9.583557E3,2.4028115E4,-7.685755E3,-1.7687455E4,9.66005E3,-1.3895653E3,-2.2473545E1,-1.22059375E4,1.3373998E3,2.7565443E4],"categories":[],"categories_nodes":[],"categories_segments":[],"categories_sizes":[],"default_left":[0,0,0,0,0,0,0,0,0,0,0,0,0,0,0],"id":53,"left_children":[1,3,5,7,9,11,13,-1,-1,-1,-1,-1,-1,-1,-1],"loss_changes":[1.7915777E12,3.0668607E11,1.5124004E12,2.9625863E11,4.3790733E10,3.7547436E12,5.741389E12,0E0,0E0,0E0,0E0,0E0,0E0,0E0,0E0],"parents":[2147483647,0,0,1,1,2,2,3,3,4,4,5,5,6,6],"right_children":[2,4,6,8,10,12,14,-1,-1,-1,-1,-1,-1,-1,-1],"split_conditions":[2.00001E0,7.1957284E-1,7.124083E-1,1.4230691E-1,2.00001E0,1.0184381E0,-5.251611E-1,-7.685755E3,-1.7687455E4,9.66005E3,-1.3895653E3,-2.2473545E1,-1.22059375E4,1.3373998E3,2.7565443E4],"split_indices":[2729,4,13,46,71,14,15,0,0,0,0,0,0,0,0],"split_type":[0,0,0,0,0,0,0,0,0,0,0,0,0,0,0],"sum_hessian":[5.847E3,1.39E2,5.708E3,1.23E2,1.6E1,3.566E3,2.142E3,6.1E1,6.2E1,4E0,1.2E1,3.293E3,2.73E2,2.056E3,8.6E1],"tree_param":{"num_deleted":"0","num_feature":"2785","num_nodes":"15","size_leaf_vector":"1"}},{"base_weights":[-1.0458204E3,-7.125719E3,4.7905086E4,6.954315E1,-9.2019375E4,8.930204E4,-1.6082786E4,1.2791847E3,-3.0340134E3,-5.4505894E3,-1.5202822E4,1.7795537E4,4.480437E3,-2.3158823E3,2.814325E4],"categories":[],"categories_nodes":[],"categories_segments":[],"categories_sizes":[],"default_left":[0,0,0,0,0,0,0,0,0,0,0,0,0,0,0],"id":54,"left_children":[1,3,5,7,9,11,13,-1,-1,-1,-1,-1,-1,-1,-1],"loss_changes":[1.7428861E12,3.1818313E12,1.7152766E12,1.8585782E12,9.079276E11,1.5423591E12,5.43351E11,0E0,0E0,0E0,0E0,0E0,0E0,0E0,0E0],"parents":[2147483647,0,0,1,1,2,2,3,3,4,4,5,5,6,6],"right_children":[2,4,6,8,10,12,14,-1,-1,-1,-1,-1,-1,-1,-1],"split_conditions":[9.738434E-1,9.522369E-1,1.2730935E0,2.00001E0,1.4850752E-1,2.00001E0,2.4746983E0,1.2791847E3,-3.0340134E3,-5.4505894E3,-1.5202822E4,1.7795537E4,4.480437E3,-2.3158823E3,2.814325E4],"split_indices":[13,14,14,2731,16,2731,16,0,0,0,0,0,0,0,0],"split_type":[0,0,0,0,0,0,0,0,0,0,0,0,0,0,0],"sum_hessian":[5.854E3,5.208E3,6.46E2,4.802E3,4.06E2,3.92E2,2.54E2,3.386E3,1.416E3,2.51E2,1.55E2,1.3E2,2.62E2,2.49E2,5E0],"tree_param":{"num_deleted":"0","num_feature":"2785","num_nodes":"15","size_leaf_vector":"1"}},{"base_weights":[5.647949E2,-7.304662E4,4.34542E3,-1.3725137E4,-1.1193965E5,-1.0881896E5,6.8454897E3,-7.92379E3,-4.5082663E2,1.979082E3,-1.210628E4,-6.807E3,-1.5417366E4,4.52257E3,-1.11706726E2],"categories":[],"categories_nodes":[],"categories_segments":[],"categories_sizes":[],"default_left":[0,0,0,0,0,0,1,0,0,0,0,0,0,0,0],"id":55,"left_children":[1,3,5,7,9,11,13,-1,-1,-1,-1,-1,-1,-1,-1],"loss_changes":[1.6236246E12,6.560134E11,1.5706616E12,6.8478546E10,2.091048E11,2.1128426E11,1.6594835E12,0E0,0E0,0E0,0E0,0E0,0E0,0E0,0E0],"parents":[2147483647,0,0,1,1,2,2,3,3,4,4,5,5,6,6],"right_children":[2,4,6,8,10,12,14,-1,-1,-1,-1,-1,-1,-1,-1],"split_conditions":[7.824853E-2,-9.1221176E-2,2.00001E0,-1.7899972E0,2.00001E0,9.557951E0,1.1132561E-1,-7.92379E3,-4.5082663E2,1.979082E3,-1.210628E4,-6.807E3,-1.5417366E4,4.52257E3,-1.11706726E2],"split_indices":[46,12,2729,18,2747,25,44,0,0,0,0,0,0,0,0],"split_type":[0,0,0,0,0,0,0,0,0,0,0,0,0,0,0],"sum_hessian":[5.832E3,2.84E2,5.548E3,1.13E2,1.71E2,1.19E2,5.429E3,1.3E1,1E2,1.1E1,1.6E2,6.4E1,5.5E1,9.32E2,4.497E3],"tree_param":{"num_deleted":"0","num_feature":"2785","num_nodes":"15","size_leaf_vector":"1"}},{"base_weights":[-1.8738426E2,-1.8358107E4,1.5537562E4,2.4399697E5,-1.9997104E4,3.2091394E5,1.2597213E4,4.5713105E4,4.9090015E3,2.5233318E3,-2.6825994E3,4.535265E4,1.7653258E4,2.7252642E3,-3.288776E3],"categories":[],"categories_nodes":[],"categories_segments":[],"categories_sizes":[],"default_left":[0,0,0,0,0,0,0,0,0,0,0,0,0,0,0],"id":56,"left_children":[1,3,5,7,9,11,13,-1,-1,-1,-1,-1,-1,-1,-1],"loss_changes":[1.6789703E12,1.177056E12,2.8243838E12,6.8376153E11,8.37724E11,4.9434093E11,2.0813599E12,0E0,0E0,0E0,0E0,0E0,0E0,0E0,0E0],"parents":[2147483647,0,0,1,1,2,2,3,3,4,4,5,5,6,6],"right_children":[2,4,6,8,10,12,14,-1,-1,-1,-1,-1,-1,-1,-1],"split_conditions":[1.5041557E-1,-2.4519033E0,4.03438E-2,1.9150891E0,8.7903225E-1,-7.6960033E-1,7.3210126E-1,4.5713105E4,4.9090015E3,2.5233318E3,-2.6825994E3,4.535265E4,1.7653258E4,2.7252642E3,-3.288776E3],"split_indices":[46,10,49,11,57,15,14,0,0,0,0,0,0,0,0],"split_type":[0,0,0,0,0,0,0,0,0,0,0,0,0,0,0],"sum_hessian":[5.874E3,2.725E3,3.149E3,1.6E1,2.709E3,2.9E1,3.12E3,7E0,9E0,3.55E2,2.354E3,1.4E1,1.5E1,2.36E3,7.6E2],"tree_param":{"num_deleted":"0","num_feature":"2785","num_nodes":"15","size_leaf_vector":"1"}},{"base_weights":[-1.609951E2,4.3070662E5,-7.467837E2,6.3640918E4,6.590179E3,7.547818E4,-3.7908013E3,1.3624781E4,-3.9324138E3,-3.8533247E3,2.9270175E2],"categories":[],"categories_nodes":[],"categories_segments":[],"categories_sizes":[],"default_left":[0,0,0,0,0,0,0,0,0,0,0],"id":57,"left_children":[1,3,5,-1,-1,7,9,-1,-1,-1,-1],"loss_changes":[1.4871943E12,5.5838966E11,1.3655515E12,0E0,0E0,1.5820455E12,1.3208863E12,0E0,0E0,0E0,0E0],"parents":[2147483647,0,0,1,1,2,2,5,5,6,6],"right_children":[2,4,6,-1,-1,8,10,-1,-1,-1,-1],"split_conditions":[2.00001E0,1.2682776E0,-1.6961894E0,6.3640918E4,6.590179E3,1.9591315E0,-2.883966E-1,1.3624781E4,-3.9324138E3,-3.8533247E3,2.9270175E2],"split_indices":[2756,10,19,0,0,23,17,0,0,0,0],"split_type":[0,0,0,0,0,0,0,0,0,0,0],"sum_hessian":[5.89E3,7E0,5.883E3,4E0,3E0,2.25E2,5.658E3,1.47E2,7.8E1,9.16E2,4.742E3],"tree_param":{"num_deleted":"0","num_feature":"2785","num_nodes":"11","size_leaf_vector":"1"}},{"base_weights":[-9.157868E2,-3.3470103E3,9.752912E4,-7.4363237E3,6.0275715E4,-3.3233324E4,1.1604885E5,-1.4687207E3,2.6788044E3,8.802444E3,-1.2839804E4,3.7317387E4,9.002E3],"categories":[],"categories_nodes":[],"categories_segments":[],"categories_sizes":[],"default_left":[1,0,0,1,0,0,0,0,0,0,0,0,0],"id":58,"left_children":[1,3,5,7,9,-1,11,-1,-1,-1,-1,-1,-1],"loss_changes":[1.3803698E12,1.4647035E12,1.1451371E12,1.3128953E12,1.791357E12,0E0,8.632243E11,0E0,0E0,0E0,0E0,0E0,0E0],"parents":[2147483647,0,0,1,1,2,2,3,3,4,4,6,6],"right_children":[2,4,6,8,10,-1,12,-1,-1,-1,-1,-1,-1],"split_conditions":[3.5272655E-1,1.310267E0,-9.3488044E-1,8.5714287E-1,-1.3417056E0,-3.3233324E4,-1.8289465E0,-1.4687207E3,2.6788044E3,8.802444E3,-1.2839804E4,3.7317387E4,9.002E3],"split_indices":[46,19,6,58,14,0,11,0,0,0,0,0,0],"split_type":[0,0,0,0,0,0,0,0,0,0,0,0,0],"sum_hessian":[5.765E3,5.627E3,1.38E2,5.288E3,3.39E2,5E0,1.33E2,4.364E3,9.24E2,2.96E2,4.3E1,1.1E1,1.22E2],"tree_param":{"num_deleted":"0","num_feature":"2785","num_nodes":"13","size_leaf_vector":"1"}},{"base_weights":[-1.42139E3,4.4945758E4,-1.9579089E3,7.708118E4,-4.539E3,1.5015697E4,-3.0662144E3,3.7996004E4,-5.0789883E2],"categories":[],"categories_nodes":[],"categories_segments":[],"categories_sizes":[],"default_left":[0,0,0,0,0,0,0,0,0],"id":59,"left_children":[1,-1,3,5,7,-1,-1,-1,-1],"loss_changes":[1.4247334E12,0E0,1.1999115E12,1.4690617E12,1.1843539E12,0E0,0E0,0E0,0E0],"parents":[2147483647,0,0,2,2,3,3,4,4],"right_children":[2,-1,4,6,8,-1,-1,-1,-1],"split_conditions":[2.00001E0,4.4945758E4,1.1699702E-1,5.538791E-1,2.00001E0,1.5015697E4,-3.0662144E3,3.7996004E4,-5.0789883E2],"split_indices":[2756,0,49,14,2733,0,0,0,0],"split_type":[0,0,0,0,0,0,0,0,0],"sum_hessian":[5.885E3,6E0,5.879E3,1.85E2,5.694E3,1.1E2,7.5E1,7E0,5.687E3],"tree_param":{"num_deleted":"0","num_feature":"2785","num_nodes":"9","size_leaf_vector":"1"}},{"base_weights":[1.5407077E2,-2.362775E3,1.20129375E5,-4.1341754E4,4.7574863E3,1.7735753E5,-6.753779E4,2.2368344E4,-4.7996025E3,-2.9883716E2,6.193823E3,2.2475016E4,-1.9053206E3,-1.789803E4,1.9999895E4],"categories":[],"categories_nodes":[],"categories_segments":[],"categories_sizes":[],"default_left":[0,0,0,0,0,0,0,0,0,0,0,0,0,0,0],"id":60,"left_children":[1,3,5,7,9,11,13,-1,-1,-1,-1,-1,-1,-1,-1],"loss_changes":[1.7782204E12,1.6010504E12,1.3114997E12,1.5820574E12,2.1607192E12,8.6996523E11,9.0042984E11,0E0,0E0,0E0,0E0,0E0,0E0,0E0,0E0],"parents":[2147483647,0,0,1,1,2,2,3,3,4,4,5,5,6,6],"right_children":[2,4,6,8,10,12,14,-1,-1,-1,-1,-1,-1,-1,-1],"split_conditions":[2.8498957E0,-1.3370988E-1,-5.0453985E-1,2.00001E0,6.6585565E-1,1.4706347E0,1.3975357E0,2.2368344E4,-4.7996025E3,-2.9883716E2,6.193823E3,2.2475016E4,-1.9053206E3,-1.789803E4,1.9999895E4],"split_indices":[12,22,9,2764,7,10,13,0,0,0,0,0,0,0,0],"split_type":[0,0,0,0,0,0,0,0,0,0,0,0,0,0,0],"sum_hessian":[5.887E3,5.767E3,1.2E2,8.9E2,4.877E3,9.2E1,2.8E1,2.1E1,8.69E2,4.296E3,5.81E2,7.4E1,1.8E1,2E1,8E0],"tree_param":{"num_deleted":"0","num_feature":"2785","num_nodes":"15","size_leaf_vector":"1"}},{"base_weights":[-8.716433E2,5.3021156E4,-1.4219331E3,-8.0799546E3,3.2415178E4,-1.1813236E3,5.1160376E3,2.3398499E3,1.8192592E4],"categories":[],"categories_nodes":[],"categories_segments":[],"categories_sizes":[],"default_left":[0,0,0,0,0,0,0,0,0],"id":61,"left_children":[1,-1,3,5,7,-1,-1,-1,-1],"loss_changes":[1.6940485E12,0E0,1.3044553E12,1.0705804E12,1.2791254E12,0E0,0E0,0E0,0E0],"parents":[2147483647,0,0,2,2,3,3,4,4],"right_children":[2,-1,4,6,8,-1,-1,-1,-1],"split_conditions":[2.00001E0,5.3021156E4,1.21668994E-1,1.851372E0,1.7963785E0,-1.1813236E3,5.1160376E3,2.3398499E3,1.8192592E4],"split_indices":[189,0,22,28,7,0,0,0,0],"split_type":[0,0,0,0,0,0,0,0,0],"sum_hessian":[5.793E3,5E0,5.788E3,4.837E3,9.51E2,4.551E3,2.86E2,8.98E2,5.3E1],"tree_param":{"num_deleted":"0","num_feature":"2785","num_nodes":"9","size_leaf_vector":"1"}},{"base_weights":[2.8607217E3,-2.2203303E3,4.3947207E4,2.8827732E3,-9.432976E4,8.475482E4,-1.97057E4,-2.616047E3,1.3016122E3,-5.4572515E3,-1.5274664E4,1.717516E4,4.8903975E3,-2.6128762E3,2.4799467E4],"categories":[],"categories_nodes":[],"categories_segments":[],"categories_sizes":[],"default_left":[0,1,0,0,0,0,0,0,0,0,0,0,0,0,0],"id":62,"left_children":[1,3,5,7,9,11,13,-1,-1,-1,-1,-1,-1,-1,-1],"loss_changes":[1.2196885E12,2.4445001E12,1.6718775E12,1.450677E12,6.2570496E11,1.2142127E12,4.397828E11,0E0,0E0,0E0,0E0,0E0,0E0,0E0,0E0],"parents":[2147483647,0,0,1,1,2,2,3,3,4,4,5,5,6,6],"right_children":[2,4,6,8,10,12,14,-1,-1,-1,-1,-1,-1,-1,-1],"split_conditions":[9.738434E-1,8.923817E-1,9.707104E-1,1.2162984E-1,9.642366E-2,4.9245175E-2,3.012235E0,-2.616047E3,1.3016122E3,-5.4572515E3,-1.5274664E4,1.717516E4,4.8903975E3,-2.6128762E3,2.4799467E4],"split_indices":[13,44,44,46,48,40,21,0,0,0,0,0,0,0,0],"split_type":[0,0,0,0,0,0,0,0,0,0,0,0,0,0,0],"sum_hessian":[5.841E3,5.199E3,6.42E2,4.927E3,2.72E2,3.91E2,2.51E2,1.274E3,3.653E3,1.63E2,1.09E2,1.13E2,2.78E2,2.46E2,5E0],"tree_param":{"num_deleted":"0","num_feature":"2785","num_nodes":"15","size_leaf_vector":"1"}},{"base_weights":[4.4514883E2,-7.4509174E2,1.5738448E5,4.242932E4,-1.1848855E3,2.7754956E5,2.46035E4,-8.679848E3,8.4078636E1,-1.0081043E4,3.393441E4,1.3661964E4,-3.6778672E3],"categories":[],"categories_nodes":[],"categories_segments":[],"categories_sizes":[],"default_left":[0,0,0,0,0,0,0,0,0,0,0,0,0],"id":63,"left_children":[1,3,5,-1,7,9,11,-1,-1,-1,-1,-1,-1],"loss_changes":[1.09193724E12,1.085066E12,6.952194E11,0E0,1.0054179E12,5.719628E11,1.5629217E11,0E0,0E0,0E0,0E0,0E0,0E0],"parents":[2147483647,0,0,1,1,2,2,4,4,5,5,6,6],"right_children":[2,4,6,-1,8,10,12,-1,-1,-1,-1,-1,-1],"split_conditions":[7.6011616E-1,2.00001E0,5.769231E-1,4.242932E4,2.00001E0,6.25E-2,-1.2507743E0,-8.679848E3,8.4078636E1,-1.0081043E4,3.393441E4,1.3661964E4,-3.6778672E3],"split_indices":[22,420,38,0,2729,47,13,0,0,0,0,0,0],"split_type":[0,0,0,0,0,0,0,0,0,0,0,0,0],"sum_hessian":[5.844E3,5.801E3,4.3E1,5E0,5.796E3,2.2E1,2.1E1,1.33E2,5.663E3,3E0,1.9E1,7E0,1.4E1],"tree_param":{"num_deleted":"0","num_feature":"2785","num_nodes":"13","size_leaf_vector":"1"}},{"base_weights":[-2.7026477E2,-2.4590151E3,8.8516766E4,-6.2873525E3,5.1551516E4,1.21460484E5,-2.4266117E5,-1.1992094E3,3.590338E3,1.3949344E4,6.670811E2,2.2410379E4,3.0445154E3,-6.128185E4,1.62162E4],"categories":[],"categories_nodes":[],"categories_segments":[],"categories_sizes":[],"default_left":[1,0,0,0,0,0,0,0,0,0,0,0,0,0,0],"id":64,"left_children":[1,3,5,7,9,11,13,-1,-1,-1,-1,-1,-1,-1,-1],"loss_changes":[1.130845E12,1.174574E12,1.5569066E12,1.2770353E12,1.4831022E12,1.1889676E12,2.0474035E12,0E0,0E0,0E0,0E0,0E0,0E0,0E0,0E0],"parents":[2147483647,0,0,1,1,2,2,3,3,4,4,5,5,6,6],"right_children":[2,4,6,8,10,12,14,-1,-1,-1,-1,-1,-1,-1,-1],"split_conditions":[3.5272655E-1,7.9249257E-1,1.3000968E0,9.738434E-1,3.5142198E-1,3.9075226E-1,4.1374418E-1,-1.1992094E3,3.590338E3,1.3949344E4,6.670811E2,2.2410379E4,3.0445154E3,-6.128185E4,1.62162E4],"split_indices":[46,49,19,13,43,4,46,0,0,0,0,0,0,0,0],"split_type":[0,0,0,0,0,0,0,0,0,0,0,0,0,0,0],"sum_hessian":[5.817E3,5.678E3,1.39E2,5.303E3,3.75E2,1.27E2,1.2E1,4.672E3,6.31E2,1.26E2,2.49E2,5.9E1,6.8E1,6E0,6E0],"tree_param":{"num_deleted":"0","num_feature":"2785","num_nodes":"15","size_leaf_vector":"1"}},{"base_weights":[-1.0883152E3,-2.5182769E3,2.1094056E5,-1.9271986E3,-3.1244416E5,3.9271212E5,6.741634E4,-2.7365048E2,3.568059E4,-3.898573E4,-7.950685E3,9.572644E3,4.495143E4,-9.730414E3,1.4556308E4],"categories":[],"categories_nodes":[],"categories_segments":[],"categories_sizes":[],"default_left":[0,0,0,0,0,0,0,0,0,0,0,0,0,0,0],"id":65,"left_children":[1,3,5,7,9,11,13,-1,-1,-1,-1,-1,-1,-1,-1],"loss_changes":[1.7651153E12,1.05860484E12,9.9098087E11,1.6767316E12,1.6735994E11,2.4375014E11,3.1022835E11,0E0,0E0,0E0,0E0,0E0,0E0,0E0,0E0],"parents":[2147483647,0,0,1,1,2,2,3,3,4,4,5,5,6,6],"right_children":[2,4,6,8,10,12,14,-1,-1,-1,-1,-1,-1,-1,-1],"split_conditions":[7.6011616E-1,2.24201E0,5.769231E-1,1.6650933E0,2.0145E0,2.00001E0,4.7931608E-2,-2.7365048E2,3.568059E4,-3.898573E4,-7.950685E3,9.572644E3,4.495143E4,-9.730414E3,1.4556308E4],"split_indices":[22,19,38,15,16,2747,27,0,0,0,0,0,0,0,0],"split_type":[0,0,0,0,0,0,0,0,0,0,0,0,0,0,0],"sum_hessian":[5.819E3,5.781E3,3.8E1,5.771E3,1E1,1.6E1,2.2E1,5.759E3,1.2E1,7E0,3E0,3E0,1.3E1,7E0,1.5E1],"tree_param":{"num_deleted":"0","num_feature":"2785","num_nodes":"15","size_leaf_vector":"1"}},{"base_weights":[1.355244E3,-7.9952104E3,1.8171162E4,-2.2892193E4,1.5069347E4,9.109067E3,2.227296E5,-1.7692786E3,-1.703819E4,4.0691816E3,-2.983359E3,1.608057E3,-1.0923883E4,4.162316E4,1.2708554E4],"categories":[],"categories_nodes":[],"categories_segments":[],"categories_sizes":[],"default_left":[0,0,0,0,0,0,0,0,0,0,0,0,0,0,0],"id":66,"left_children":[1,3,5,7,9,11,13,-1,-1,-1,-1,-1,-1,-1,-1],"loss_changes":[9.2359505E11,1.2974061E12,3.888946E12,1.7561602E12,1.7062908E12,1.6609576E12,1.5942539E12,0E0,0E0,0E0,0E0,0E0,0E0,0E0,0E0],"parents":[2147483647,0,0,1,1,2,2,3,3,4,4,5,5,6,6],"right_children":[2,4,6,8,10,12,14,-1,-1,-1,-1,-1,-1,-1,-1],"split_conditions":[7.418957E-1,1.0177609E0,-5.251611E-1,6.5246336E-2,1.4874963E0,1.1722868E-1,1.798143E-1,-1.7692786E3,-1.703819E4,4.0691816E3,-2.983359E3,1.608057E3,-1.0923883E4,4.162316E4,1.2708554E4],"split_indices":[13,15,15,42,10,19,19,0,0,0,0,0,0,0,0],"split_type":[0,0,0,0,0,0,0,0,0,0,0,0,0,0,0],"sum_hessian":[5.872E3,3.774E3,2.098E3,2.293E3,1.481E3,2.01E3,8.8E1,2.216E3,7.7E1,9.43E2,5.38E2,1.899E3,1.11E2,2.8E1,6E1],"tree_param":{"num_deleted":"0","num_feature":"2785","num_nodes":"15","size_leaf_vector":"1"}},{"base_weights":[1.0951329E3,-8.6865546E2,9.400087E4,-5.938414E3,3.2009697E4,-1.7922379E4,1.6050703E5,-6.3583685E2,5.1607938E4,1.640272E4,7.6787976E2,-8.884911E3,1.082967E4,2.1970691E4,3.8210852E3],"categories":[],"categories_nodes":[],"categories_segments":[],"categories_sizes":[],"default_left":[0,0,0,0,0,0,0,0,0,0,0,0,0,0,0],"id":67,"left_children":[1,3,5,7,9,11,13,-1,-1,-1,-1,-1,-1,-1,-1],"loss_changes":[1.0664856E12,9.544635E11,9.0355053E11,1.09084934E12,2.4560004E12,4.2142813E11,5.4183867E11,0E0,0E0,0E0,0E0,0E0,0E0,0E0,0E0],"parents":[2147483647,0,0,1,1,2,2,3,3,4,4,5,5,6,6],"right_children":[2,4,6,8,10,12,14,-1,-1,-1,-1,-1,-1,-1,-1],"split_conditions":[2.36225E-1,9.763024E-1,1.3185467E-4,1.7053386E0,8.7903225E-1,2.8498957E0,6.666667E-3,-6.3583685E2,5.1607938E4,1.640272E4,7.6787976E2,-8.884911E3,1.082967E4,2.1970691E4,3.8210852E3],"split_indices":[59,8,39,19,57,12,52,0,0,0,0,0,0,0,0],"split_type":[0,0,0,0,0,0,0,0,0,0,0,0,0,0,0],"sum_hessian":[5.844E3,5.724E3,1.2E2,4.96E3,7.64E2,4.5E1,7.5E1,4.957E3,3E0,1.18E2,6.46E2,2.9E1,1.6E1,5E1,2.5E1],"tree_param":{"num_deleted":"0","num_feature":"2785","num_nodes":"15","size_leaf_vector":"1"}},{"base_weights":[-1.0877525E2,9.438963E3,-1.9671637E4,6.906978E4,-7.893163E2,2.0763959E4,-3.592006E4,1.0483286E4,-6.4875073E3,4.955714E3,-8.020567E2,3.2281794E3,-5.509641E3,-9.957223E3,-2.4310984E3],"categories":[],"categories_nodes":[],"categories_segments":[],"categories_sizes":[],"default_left":[0,1,0,0,0,0,0,0,0,0,0,0,0,0,0],"id":68,"left_children":[1,3,5,7,9,11,13,-1,-1,-1,-1,-1,-1,-1,-1],"loss_changes":[1.0934152E12,2.3994822E12,1.2622142E12,2.7660022E12,1.2233013E12,4.832133E11,1.009931E12,0E0,0E0,0E0,0E0,0E0,0E0,0E0,0E0],"parents":[2147483647,0,0,1,1,2,2,3,3,4,4,5,5,6,6],"right_children":[2,4,6,8,10,12,14,-1,-1,-1,-1,-1,-1,-1,-1],"split_conditions":[2.00001E0,2.3487107E-1,-5.525267E-2,1.5502474E-1,-5.0301147E-1,7.790485E-1,8.980337E-2,1.0483286E4,-6.4875073E3,4.955714E3,-8.020567E2,3.2281794E3,-5.509641E3,-9.957223E3,-2.4310984E3],"split_indices":[2731,49,12,12,27,5,46,0,0,0,0,0,0,0,0],"split_type":[0,0,0,0,0,0,0,0,0,0,0,0,0,0,0],"sum_hessian":[5.852E3,3.933E3,1.919E3,5.75E2,3.358E3,5.5E2,1.369E3,4.54E2,1.21E2,4.21E2,2.937E3,4.78E2,7.2E1,2.1E2,1.159E3],"tree_param":{"num_deleted":"0","num_feature":"2785","num_nodes":"15","size_leaf_vector":"1"}},{"base_weights":[-1.590927E3,-3.2817797E4,4.346722E3,1.4891525E4,-6.168335E4,2.6623162E3,1.495792E5,-9.9443713E2,7.4787124E3,3.722166E3,-9.33096E3,1.2516755E3,-1.9187181E3,2.8513045E4,9.760664E3],"categories":[],"categories_nodes":[],"categories_segments":[],"categories_sizes":[],"default_left":[0,0,0,0,0,0,0,0,0,0,0,0,0,0,0],"id":69,"left_children":[1,3,5,7,9,11,13,-1,-1,-1,-1,-1,-1,-1,-1],"loss_changes":[1.07814086E12,1.2802965E12,1.1948662E12,5.2287757E11,1.814582E12,1.0404247E12,3.6668624E11,0E0,0E0,0E0,0E0,0E0,0E0,0E0,0E0],"parents":[2147483647,0,0,1,1,2,2,3,3,4,4,5,5,6,6],"right_children":[2,4,6,8,10,12,14,-1,-1,-1,-1,-1,-1,-1,-1],"split_conditions":[-1.3370988E-1,6.0471397E-2,3.5775065E-1,1.1412267E-1,8.7903225E-1,2.00001E0,1.264106E-1,-9.9443713E2,7.4787124E3,3.722166E3,-9.33096E3,1.2516755E3,-1.9187181E3,2.8513045E4,9.760664E3],"split_indices":[22,42,32,47,57,2731,42,0,0,0,0,0,0,0,0],"split_type":[0,0,0,0,0,0,0,0,0,0,0,0,0,0,0],"sum_hessian":[5.813E3,9.28E2,4.885E3,3.5E2,5.78E2,4.83E3,5.5E1,2.48E2,1.02E2,1.4E2,4.38E2,3.329E3,1.501E3,1.4E1,4.1E1],"tree_param":{"num_deleted":"0","num_feature":"2785","num_nodes":"15","size_leaf_vector":"1"}},{"base_weights":[1.9939387E3,7.78124E4,-5.261008E2,1.1939212E5,-7.4178125E4,-6.3563535E3,3.421941E4,2.9122176E4,9.182635E3,-1.6143117E4,1.0562641E4,-6.9296277E2,4.5714418E4,1.9814365E3,2.363234E4],"categories":[],"categories_nodes":[],"categories_segments":[],"categories_sizes":[],"default_left":[0,0,0,0,0,1,0,0,0,0,0,0,0,0,0],"id":70,"left_children":[1,3,5,7,9,11,13,-1,-1,-1,-1,-1,-1,-1,-1],"loss_changes":[1.1166278E12,1.1969646E12,1.1461849E12,6.7427736E11,6.602796E11,1.2905468E12,2.3622179E12,0E0,0E0,0E0,0E0,0E0,0E0,0E0,0E0],"parents":[2147483647,0,0,1,1,2,2,3,3,4,4,5,5,6,6],"right_children":[2,4,6,8,10,12,14,-1,-1,-1,-1,-1,-1,-1,-1],"split_conditions":[1.1699702E-1,5.62748E-1,9.763024E-1,2.00001E0,2.00001E0,8.901947E-1,4.3777475E-1,2.9122176E4,9.182635E3,-1.6143117E4,1.0562641E4,-6.9296277E2,4.5714418E4,1.9814365E3,2.363234E4],"split_indices":[49,14,8,2758,53,49,14,0,0,0,0,0,0,0,0],"split_type":[0,0,0,0,0,0,0,0,0,0,0,0,0,0,0],"sum_hessian":[5.843E3,1.87E2,5.656E3,1.47E2,4E1,4.844E3,8.12E2,1.9E1,1.28E2,2.7E1,1.3E1,4.839E3,5E0,7.59E2,5.3E1],"tree_param":{"num_deleted":"0","num_feature":"2785","num_nodes":"15","size_leaf_vector":"1"}},{"base_weights":[9.496636E2,-2.3544495E5,2.3443994E3,-3.0928715E4,-3.0783366E5,-2.86971E3,3.516392E4,7.25119E3,-2.0421764E4,-8.455444E3,-3.4633664E4,1.070985E4,-6.147671E2,4.4638327E2,1.7766816E4],"categories":[],"categories_nodes":[],"categories_segments":[],"categories_sizes":[],"default_left":[0,0,0,0,0,0,0,0,0,0,0,0,0,0,0],"id":71,"left_children":[1,3,5,7,9,11,13,-1,-1,-1,-1,-1,-1,-1,-1],"loss_changes":[1.9112101E12,4.9383775E11,9.861207E11,1.9405935E11,1.8563832E11,1.7932829E12,3.4553725E12,0E0,0E0,0E0,0E0,0E0,0E0,0E0,0E0],"parents":[2147483647,0,0,1,1,2,2,3,3,4,4,5,5,6,6],"right_children":[2,4,6,8,10,12,14,-1,-1,-1,-1,-1,-1,-1,-1],"split_conditions":[2.00001E0,-4.3338308E-1,6.6585565E-1,7.044626E-1,-3.4559914E-1,6.0632307E-2,2.00001E0,7.25119E3,-2.0421764E4,-8.455444E3,-3.4633664E4,1.070985E4,-6.147671E2,4.4638327E2,1.7766816E4],"split_indices":[2728,12,7,44,27,44,2766,0,0,0,0,0,0,0,0],"split_type":[0,0,0,0,0,0,0,0,0,0,0,0,0,0,0],"sum_hessian":[5.794E3,3.3E1,5.761E3,9E0,2.4E1,4.972E3,7.89E2,6E0,3E0,4E0,2E1,1.43E2,4.829E3,6.5E2,1.39E2],"tree_param":{"num_deleted":"0","num_feature":"2785","num_nodes":"15","size_leaf_vector":"1"}},{"base_weights":[5.7451886E2,3.956324E4,1.6964833E2,3.3555353E5,-2.891037E2,5.599405E4,-2.8818506E3,-8.1466655E3,1.5994574E2],"categories":[],"categories_nodes":[],"categories_segments":[],"categories_sizes":[],"default_left":[0,0,0,0,0,0,0,0,0],"id":72,"left_children":[1,-1,3,5,7,-1,-1,-1,-1],"loss_changes":[9.373838E11,0E0,9.010897E11,6.702193E11,8.9683336E11,0E0,0E0,0E0,0E0],"parents":[2147483647,0,0,2,2,3,3,4,4],"right_children":[2,-1,4,6,8,-1,-1,-1,-1],"split_conditions":[2.00001E0,3.956324E4,2.00001E0,3.9075226E-1,2.00001E0,5.599405E4,-2.8818506E3,-8.1466655E3,1.5994574E2],"split_indices":[2756,0,189,4,2729,0,0,0,0],"split_type":[0,0,0,0,0,0,0,0,0],"sum_hessian":[5.86E3,5E0,5.855E3,7E0,5.848E3,4E0,3E0,1.32E2,5.716E3],"tree_param":{"num_deleted":"0","num_feature":"2785","num_nodes":"9","size_leaf_vector":"1"}},{"base_weights":[1.079695E3,-9.665053E2,9.1278625E4,1.4210709E4,-1.0489442E4,2.4772256E5,4.9382848E4,1.8085041E4,6.495753E2,-4.448003E3,6.2203046E2,1.8873724E3,2.7554225E4,2.4394082E3,2.3684812E4],"categories":[],"categories_nodes":[],"categories_segments":[],"categories_sizes":[],"default_left":[0,0,0,0,0,0,0,0,0,0,0,0,0,0,0],"id":73,"left_children":[1,3,5,7,9,11,13,-1,-1,-1,-1,-1,-1,-1,-1],"loss_changes":[1.0733342E12,8.2210056E11,8.3327654E11,2.818185E12,1.985346E12,1.6669501E11,4.7672843E11,0E0,0E0,0E0,0E0,0E0,0E0,0E0,0E0],"parents":[2147483647,0,0,1,1,2,2,3,3,4,4,5,5,6,6],"right_children":[2,4,6,8,10,12,14,-1,-1,-1,-1,-1,-1,-1,-1],"split_conditions":[2.4746983E0,5.7517055E-2,-1.1704704E0,-5.0301147E-1,-1.0406943E-2,-2.2015684E0,1.8861243E0,1.8085041E4,6.495753E2,-4.448003E3,6.2203046E2,1.8873724E3,2.7554225E4,2.4394082E3,2.3684812E4],"split_indices":[16,14,19,27,27,19,12,0,0,0,0,0,0,0,0],"split_type":[0,0,0,0,0,0,0,0,0,0,0,0,0,0,0],"sum_hessian":[5.814E3,5.686E3,1.28E2,2.192E3,3.494E3,2.6E1,1.02E2,9.6E1,2.096E3,1.151E3,2.343E3,3E0,2.3E1,9.1E1,1.1E1],"tree_param":{"num_deleted":"0","num_feature":"2785","num_nodes":"15","size_leaf_vector":"1"}},{"base_weights":[-1.6947577E2,1.9553514E5,-1.0468944E3,5.2089078E5,7.18839E4,-4.6394424E2,-2.6046884E5,6.674058E4,2.4415307E4,-1.2571506E4,1.1414932E4,-8.705643E1,5.8762457E4,-3.2711467E4,-8.841258E3],"categories":[],"categories_nodes":[],"categories_segments":[],"categories_sizes":[],"default_left":[0,0,1,0,0,1,0,0,0,0,0,0,0,0,0],"id":74,"left_children":[1,3,5,7,9,11,13,-1,-1,-1,-1,-1,-1,-1,-1],"loss_changes":[1.00027204E12,1.0085526E12,8.768623E11,1.2087434E11,1.8138232E11,1.3843485E12,1.2014767E11,0E0,0E0,0E0,0E0,0E0,0E0,0E0,0E0],"parents":[2147483647,0,0,1,1,2,2,3,3,4,4,5,5,6,6],"right_children":[2,4,6,8,10,12,14,-1,-1,-1,-1,-1,-1,-1,-1],"split_conditions":[1.0535835E-2,1.9591315E0,1E0,-4.9338323E-1,-5.1995856E-1,8.901947E-1,2.0145E0,6.674058E4,2.4415307E4,-1.2571506E4,1.1414932E4,-8.705643E1,5.8762457E4,-3.2711467E4,-8.841258E3],"split_indices":[40,23,49,16,9,49,16,0,0,0,0,0,0,0,0],"split_type":[0,0,0,0,0,0,0,0,0,0,0,0,0,0,0],"sum_hessian":[5.823E3,2.5E1,5.798E3,6E0,1.9E1,5.786E3,1.2E1,3E0,3E0,3E0,1.6E1,5.783E3,3E0,8E0,4E0],"tree_param":{"num_deleted":"0","num_feature":"2785","num_nodes":"15","size_leaf_vector":"1"}},{"base_weights":[5.9588367E2,4.192193E4,1.6671793E2,3.978148E4,-2.4122444E2,5.1441547E2,-2.8622432E3],"categories":[],"categories_nodes":[],"categories_segments":[],"categories_sizes":[],"default_left":[0,0,0,0,0,0,0],"id":75,"left_children":[1,-1,3,-1,5,-1,-1],"loss_changes":[1.05255115E12,0E0,9.497172E11,0E0,8.9412914E11,0E0,0E0],"parents":[2147483647,0,0,2,2,4,4],"right_children":[2,-1,4,-1,6,-1,-1],"split_conditions":[2.00001E0,4.192193E4,2.00001E0,3.978148E4,1.1833333E-1,5.1441547E2,-2.8622432E3],"split_indices":[2756,0,420,0,52,0,0],"split_type":[0,0,0,0,0,0,0],"sum_hessian":[5.858E3,5E0,5.853E3,5E0,5.848E3,4.916E3,9.32E2],"tree_param":{"num_deleted":"0","num_feature":"2785","num_nodes":"7","size_leaf_vector":"1"}},{"base_weights":[-1.703509E2,4.556275E3,-2.6732088E4,3.5917312E3,2.8587828E5,2.8187523E4,-6.69042E4,-1.4258947E3,1.7880035E3,8.535501E3,5.0079758E4,1.8689682E4,1.4841423E2,-3.2167986E3,-1.2367714E4],"categories":[],"categories_nodes":[],"categories_segments":[],"categories_sizes":[],"default_left":[0,0,0,0,0,0,0,0,0,0,0,0,0,0,0],"id":76,"left_children":[1,3,5,7,9,11,13,-1,-1,-1,-1,-1,-1,-1,-1],"loss_changes":[7.363317E11,1.3500118E12,1.9566119E12,1.2660973E12,6.898917E11,1.5890005E12,1.0057249E12,0E0,0E0,0E0,0E0,0E0,0E0,0E0,0E0],"parents":[2147483647,0,0,1,1,2,2,3,3,4,4,5,5,6,6],"right_children":[2,4,6,8,10,12,14,-1,-1,-1,-1,-1,-1,-1,-1],"split_conditions":[9.522369E-1,1.0542362E0,-2.2722542E0,1.4899655E-1,8.189022E-1,1.2181747E0,9.790251E-2,-1.4258947E3,1.7880035E3,8.535501E3,5.0079758E4,1.8689682E4,1.4841423E2,-3.2167986E3,-1.2367714E4],"split_indices":[14,13,10,46,14,14,50,0,0,0,0,0,0,0,0],"split_type":[0,0,0,0,0,0,0,0,0,0,0,0,0,0,0],"sum_hessian":[5.863E3,4.978E3,8.85E2,4.962E3,1.6E1,3.74E2,5.11E2,2.206E3,2.756E3,9E0,7E0,5.3E1,3.21E2,3.18E2,1.93E2],"tree_param":{"num_deleted":"0","num_feature":"2785","num_nodes":"15","size_leaf_vector":"1"}},{"base_weights":[1.1019404E3,4.4961152E4,7.2056195E2,-1.6521475E5,1.6848491E3,4.57539E4,-2.4024057E4,2.3571722E1,9.339161E3],"categories":[],"categories_nodes":[],"categories_segments":[],"categories_sizes":[],"default_left":[0,0,0,0,1,0,0,0,0],"id":77,"left_children":[1,-1,3,5,7,-1,-1,-1,-1],"loss_changes":[1.0066587E12,0E0,9.416131E11,1.6984881E12,7.7741484E11,0E0,0E0,0E0,0E0],"parents":[2147483647,0,0,2,2,3,3,4,4],"right_children":[2,-1,4,6,8,-1,-1,-1,-1],"split_conditions":[2.00001E0,4.4961152E4,2.00001E0,2.5828065E-2,8.311233E-1,4.57539E4,-2.4024057E4,2.3571722E1,9.339161E3],"split_indices":[420,0,2728,42,45,0,0,0,0],"split_type":[0,0,0,0,0,0,0,0,0],"sum_hessian":[5.886E3,4E0,5.882E3,3.3E1,5.849E3,3E0,3E1,5.759E3,9E1],"tree_param":{"num_deleted":"0","num_feature":"2785","num_nodes":"9","size_leaf_vector":"1"}},{"base_weights":[7.440049E2,3.3825034E5,3.368923E2,1.7677291E4,4.1516516E4,7.99703E2,-2.6794188E4,4.4691795E1,4.0930598E4],"categories":[],"categories_nodes":[],"categories_segments":[],"categories_sizes":[],"default_left":[0,0,0,0,0,0,0,0,0],"id":78,"left_children":[1,3,5,-1,-1,7,-1,-1,-1],"loss_changes":[7.9833524E11,1.3550027E10,7.2097635E11,0E0,0E0,8.35107E11,0E0,0E0,0E0],"parents":[2147483647,0,0,1,1,2,2,5,5],"right_children":[2,4,6,-1,-1,8,-1,-1,-1],"split_conditions":[2.00001E0,1.1643925E0,2.24201E0,1.7677291E4,4.1516516E4,1.7522779E0,-2.6794188E4,4.4691795E1,4.0930598E4],"split_indices":[2733,16,19,0,0,19,0,0,0],"split_type":[0,0,0,0,0,0,0,0,0],"sum_hessian":[5.81E3,6E0,5.804E3,3E0,3E0,5.795E3,9E0,5.791E3,4E0],"tree_param":{"num_deleted":"0","num_feature":"2785","num_nodes":"9","size_leaf_vector":"1"}},{"base_weights":[9.5048584E2,-4.849571E4,4.0519702E3,-9.071626E3,-7.240253E4,1.212754E5,2.5577922E3,-6.4968643E3,4.7245435E2,-6.54853E3,-2.4233553E4,5.5973467E3,2.6787154E4,-3.6889096E2,2.7183193E3],"categories":[],"categories_nodes":[],"categories_segments":[],"categories_sizes":[],"default_left":[0,0,0,0,0,0,0,0,0,0,0,0,0,0,0],"id":79,"left_children":[1,3,5,7,9,11,13,-1,-1,-1,-1,-1,-1,-1,-1],"loss_changes":[8.9380546E11,3.2356467E11,9.6022705E11,1.01329535E11,2.356803E11,6.4554415E11,8.332303E11,0E0,0E0,0E0,0E0,0E0,0E0,0E0,0E0],"parents":[2147483647,0,0,1,1,2,2,3,3,4,4,5,5,6,6],"right_children":[2,4,6,8,10,12,14,-1,-1,-1,-1,-1,-1,-1,-1],"split_conditions":[8.3823234E-2,6.2792085E-2,4.03438E-2,-1.3448168E0,9.898242E-1,1.8696792E-1,2.1364652E-1,-6.4968643E3,4.7245435E2,-6.54853E3,-2.4233553E4,5.5973467E3,2.6787154E4,-3.6889096E2,2.7183193E3],"split_indices":[46,42,49,16,13,16,7,0,0,0,0,0,0,0,0],"split_type":[0,0,0,0,0,0,0,0,0,0,0,0,0,0,0],"sum_hessian":[5.826E3,3.43E2,5.483E3,1.3E2,2.13E2,6.8E1,5.415E3,2.5E1,1.05E2,2.06E2,7E0,4.8E1,2E1,4.32E3,1.095E3],"tree_param":{"num_deleted":"0","num_feature":"2785","num_nodes":"15","size_leaf_vector":"1"}},{"base_weights":[1.183685E3,-8.915104E2,7.563038E4,3.410672E2,-1.0111596E5,-2.944193E5,9.239517E4,1.6778273E4,-4.4981823E1,-6.0601157E3,-1.889062E4,1.7389131E3,-5.3262293E4,3.1741787E4,6.689711E3],"categories":[],"categories_nodes":[],"categories_segments":[],"categories_sizes":[],"default_left":[0,0,0,0,0,0,0,0,0,0,0,0,0,0,0],"id":80,"left_children":[1,3,5,7,9,11,13,-1,-1,-1,-1,-1,-1,-1,-1],"loss_changes":[8.887023E11,6.9145664E11,9.949961E11,7.323978E11,2.3041468E11,5.291792E11,8.394121E11,0E0,0E0,0E0,0E0,0E0,0E0,0E0,0E0],"parents":[2147483647,0,0,1,1,2,2,3,3,4,4,5,5,6,6],"right_children":[2,4,6,8,10,12,14,-1,-1,-1,-1,-1,-1,-1,-1],"split_conditions":[2.3248355E0,9.557951E0,-9.3488044E-1,-2.4519033E0,4.37361E-2,-1.1973485E0,-1.6414467E0,1.6778273E4,-4.4981823E1,-6.0601157E3,-1.889062E4,1.7389131E3,-5.3262293E4,3.1741787E4,6.689711E3],"split_indices":[16,25,6,10,16,6,14,0,0,0,0,0,0,0,0],"split_type":[0,0,0,0,0,0,0,0,0,0,0,0,0,0,0],"sum_hessian":[5.751E3,5.596E3,1.55E2,5.529E3,6.7E1,6E0,1.49E2,2.5E1,5.504E3,4.7E1,2E1,3E0,3E0,1.4E1,1.35E2],"tree_param":{"num_deleted":"0","num_feature":"2785","num_nodes":"15","size_leaf_vector":"1"}},{"base_weights":[5.9552826E2,4.133205E4,2.450664E2,1.25097984E5,-8.021842E2,4.880053E4,7.2767485E3,2.802138E2,-3.7774458E3],"categories":[],"categories_nodes":[],"categories_segments":[],"categories_sizes":[],"default_left":[0,0,0,0,0,0,0,0,0],"id":81,"left_children":[1,-1,3,5,7,-1,-1,-1,-1],"loss_changes":[8.524326E11,0E0,7.702314E11,8.9505405E11,7.786106E11,0E0,0E0,0E0,0E0],"parents":[2147483647,0,0,2,2,3,3,4,4],"right_children":[2,-1,4,6,8,-1,-1,-1,-1],"split_conditions":[2.00001E0,4.133205E4,3.0236533E-3,-1.7964445E0,1.4874963E0,4.880053E4,7.2767485E3,2.802138E2,-3.7774458E3],"split_indices":[420,0,42,11,10,0,0,0,0],"split_type":[0,0,0,0,0,0,0,0,0],"sum_hessian":[5.893E3,4E0,5.889E3,4.8E1,5.841E3,5E0,4.3E1,5.323E3,5.18E2],"tree_param":{"num_deleted":"0","num_feature":"2785","num_nodes":"9","size_leaf_vector":"1"}},{"base_weights":[1.4700167E3,-1.4899542E3,5.128123E4,5.696029E3,-2.4428486E4,-7.694931E3,1.5406217E5,-3.532733E1,7.718551E3,1.9493212E3,-5.3789683E3,2.0480438E4,-1.7124629E3,8.58005E3,2.359042E4],"categories":[],"categories_nodes":[],"categories_segments":[],"categories_sizes":[],"default_left":[0,0,1,1,0,0,0,0,0,0,0,0,0,0,0],"id":82,"left_children":[1,3,5,7,9,11,13,-1,-1,-1,-1,-1,-1,-1,-1],"loss_changes":[8.6481057E11,9.128355E11,1.99546E12,1.823717E12,1.7046018E12,4.2430605E11,6.501604E11,0E0,0E0,0E0,0E0,0E0,0E0,0E0,0E0],"parents":[2147483647,0,0,1,1,2,2,3,3,4,4,5,5,6,6],"right_children":[2,4,6,8,10,12,14,-1,-1,-1,-1,-1,-1,-1,-1],"split_conditions":[1.851372E0,1.25E-1,1.3185467E-4,1.25E-1,6.1773654E-2,1.2682776E0,1.853791E-2,-3.532733E1,7.718551E3,1.9493212E3,-5.3789683E3,2.0480438E4,-1.7124629E3,8.58005E3,2.359042E4],"split_indices":[28,50,39,48,42,10,16,0,0,0,0,0,0,0,0],"split_type":[0,0,0,0,0,0,0,0,0,0,0,0,0,0,0],"sum_hessian":[5.864E3,5.536E3,3.28E2,4.216E3,1.32E3,2.09E2,1.19E2,3.888E3,3.28E2,5.29E2,7.91E2,8E0,2.01E2,6.6E1,5.3E1],"tree_param":{"num_deleted":"0","num_feature":"2785","num_nodes":"15","size_leaf_vector":"1"}},{"base_weights":[4.4672614E2,2.8241134E5,5.8268204E1,5.3417812E4,2.4515632E3,-1.1138481E3,8.9669695E4,-2.855397E2,6.2861025E3,-7.832982E3,1.5218461E4],"categories":[],"categories_nodes":[],"categories_segments":[],"categories_sizes":[],"default_left":[0,0,0,0,0,0,0,0,0,0,0],"id":83,"left_children":[1,3,5,-1,-1,7,9,-1,-1,-1,-1],"loss_changes":[6.3690854E11,5.0634077E11,6.101433E11,0E0,0E0,6.390351E11,7.9960624E11,0E0,0E0,0E0,0E0],"parents":[2147483647,0,0,1,1,2,2,5,5,6,6],"right_children":[2,4,6,-1,-1,8,10,-1,-1,-1,-1],"split_conditions":[2.00001E0,-1.3049276E0,3.893993E0,5.3417812E4,2.4515632E3,3.408952E0,7.5887074E-5,-2.855397E2,6.2861025E3,-7.832982E3,1.5218461E4],"split_indices":[189,12,6,0,0,8,39,0,0,0,0],"split_type":[0,0,0,0,0,0,0,0,0,0,0],"sum_hessian":[5.814E3,7E0,5.807E3,3E0,4E0,5.733E3,7.4E1,5.582E3,1.51E2,2E1,5.4E1],"tree_param":{"num_deleted":"0","num_feature":"2785","num_nodes":"11","size_leaf_vector":"1"}},{"base_weights":[-1.7035508E3,2.050234E4,-6.636287E3,7.0897805E4,-2.899116E4,-5.819627E3,-3.054002E5,1.3809647E4,-6.149847E2,-4.048387E4,-2.1804316E3,-2.4873765E3,4.7506345E2,-4.9897277E4,1.0411051E4],"categories":[],"categories_nodes":[],"categories_segments":[],"categories_sizes":[],"default_left":[1,0,0,0,0,1,0,0,0,0,0,0,0,0,0],"id":84,"left_children":[1,3,5,7,9,11,13,-1,-1,-1,-1,-1,-1,-1,-1],"loss_changes":[6.39387E11,2.6484524E12,1.1635115E12,2.724214E12,1.4389931E12,9.5962215E11,1.0824588E12,0E0,0E0,0E0,0E0,0E0,0E0,0E0,0E0],"parents":[2147483647,0,0,1,1,2,2,3,3,4,4,5,5,6,6],"right_children":[2,4,6,8,10,12,14,-1,-1,-1,-1,-1,-1,-1,-1],"split_conditions":[1.1132561E-1,1.4874963E0,4.2584314E0,2.00001E0,2.00001E0,9.354839E-1,6.6145664E-1,1.3809647E4,-6.149847E2,-4.048387E4,-2.1804316E3,-2.4873765E3,4.7506345E2,-4.9897277E4,1.0411051E4],"split_indices":[44,10,12,2731,135,57,0,0,0,0,0,0,0,0,0],"split_type":[0,0,0,0,0,0,0,0,0,0,0,0,0,0,0],"sum_hessian":[5.835E3,1.06E3,4.775E3,5.25E2,5.35E2,4.763E3,1.2E1,2.8E2,2.45E2,9E0,5.26E2,1.699E3,3.064E3,8E0,4E0],"tree_param":{"num_deleted":"0","num_feature":"2785","num_nodes":"15","size_leaf_vector":"1"}},{"base_weights":[-2.0928984E2,-1.8086031E3,8.228809E4,-4.8121875E3,4.6227184E4,2.6267778E5,4.4139266E4,-1.9960746E3,5.8455084E2,1.4331589E4,1.3032117E3,3.90526E4,1.0856179E4,-3.5084605E4,7.087228E3],"categories":[],"categories_nodes":[],"categories_segments":[],"categories_sizes":[],"default_left":[0,0,0,0,0,0,0,0,0,0,0,0,0,0,0],"id":85,"left_children":[1,3,5,7,9,11,13,-1,-1,-1,-1,-1,-1,-1,-1],"loss_changes":[7.63153E11,8.188646E11,7.453877E11,8.624143E11,1.0745696E12,3.3196933E11,9.9630704E11,0E0,0E0,0E0,0E0,0E0,0E0,0E0,0E0],"parents":[2147483647,0,0,1,1,2,2,3,3,4,4,5,5,6,6],"right_children":[2,4,6,8,10,12,14,-1,-1,-1,-1,-1,-1,-1,-1],"split_conditions":[2.8498957E0,2.4967084E0,-8.153066E-1,2.00001E0,1.1239431E0,6.093403E-3,-6.5550816E-1,-1.9960746E3,5.8455084E2,1.4331589E4,1.3032117E3,3.90526E4,1.0856179E4,-3.5084605E4,7.087228E3],"split_indices":[12,8,0,2766,15,18,29,0,0,0,0,0,0,0,0],"split_type":[0,0,0,0,0,0,0,0,0,0,0,0,0,0,0],"sum_hessian":[5.782E3,5.673E3,1.09E2,5.34E3,3.33E2,1.8E1,9.1E1,2.205E3,3.135E3,8.4E1,2.49E2,9E0,9E0,5E0,8.6E1],"tree_param":{"num_deleted":"0","num_feature":"2785","num_nodes":"15","size_leaf_vector":"1"}},{"base_weights":[-8.2543555E2,-3.457807E2,-2.3207019E5,-8.0291656E2,3.772325E5,-2.7787188E4,-7.0998853E3,2.325335E4,-1.3285832E2,1.3922132E4,5.2093555E4],"categories":[],"categories_nodes":[],"categories_segments":[],"categories_sizes":[],"default_left":[0,0,0,0,0,0,0,0,0,0,0],"id":86,"left_children":[1,3,5,7,9,-1,-1,-1,-1,-1,-1],"loss_changes":[6.4302036E11,9.991654E11,6.879943E10,7.0938984E11,1.6689509E11,0E0,0E0,0E0,0E0,0E0,0E0],"parents":[2147483647,0,0,1,1,2,2,3,3,4,4],"right_children":[2,4,6,8,10,-1,-1,-1,-1,-1,-1],"split_conditions":[2.24201E0,1.7522779E0,2.0145E0,2.3207718E-1,3.5009304E-1,-2.7787188E4,-7.0998853E3,2.325335E4,-1.3285832E2,1.3922132E4,5.2093555E4],"split_indices":[19,19,16,43,16,0,0,0,0,0,0],"split_type":[0,0,0,0,0,0,0,0,0,0,0],"sum_hessian":[5.797E3,5.786E3,1.1E1,5.78E3,6E0,8E0,3E0,1.2E1,5.768E3,3E0,3E0],"tree_param":{"num_deleted":"0","num_feature":"2785","num_nodes":"11","size_leaf_vector":"1"}},{"base_weights":[-1.7452522E3,6.1524316E3,-1.7998203E4,4.106279E4,-3.858204E3,1.9851395E4,-3.384911E4,3.3796353E3,3.67421E4,3.4319832E3,-1.3033606E3,3.221577E4,1.7664426E3,-3.2099187E3,-2.6477922E4],"categories":[],"categories_nodes":[],"categories_segments":[],"categories_sizes":[],"default_left":[0,0,0,1,0,0,0,0,0,0,0,0,0,0,0],"id":87,"left_children":[1,3,5,7,9,11,13,-1,-1,-1,-1,-1,-1,-1,-1],"loss_changes":[7.505071E11,1.375342E12,1.1477773E12,2.0673541E12,1.0720114E12,3.678503E11,5.3624164E11,0E0,0E0,0E0,0E0,0E0,0E0,0E0,0E0],"parents":[2147483647,0,0,1,1,2,2,3,3,4,4,5,5,6,6],"right_children":[2,4,6,8,10,12,14,-1,-1,-1,-1,-1,-1,-1,-1],"split_conditions":[2.00001E0,-6.384926E-1,7.291276E-3,2.0833333E-1,-1.5211174E0,2.00001E0,4.2584314E0,3.3796353E3,3.67421E4,3.4319832E3,-1.3033606E3,3.221577E4,1.7664426E3,-3.2099187E3,-2.6477922E4],"split_indices":[2731,19,12,37,14,70,12,0,0,0,0,0,0,0,0],"split_type":[0,0,0,0,0,0,0,0,0,0,0,0,0,0,0],"sum_hessian":[5.845E3,3.934E3,1.911E3,8.76E2,3.058E3,5.64E2,1.347E3,8.58E2,1.8E1,5.92E2,2.466E3,3E0,5.61E2,1.338E3,9E0],"tree_param":{"num_deleted":"0","num_feature":"2785","num_nodes":"15","size_leaf_vector":"1"}},{"base_weights":[1.3758643E2,3.2399709E4,-4.4949507E3,1.878386E5,1.3458062E4,1.2775784E3,-3.5125406E4,2.9318275E4,8.305175E3,2.5997463E3,-6.0072095E3,-3.3097632E2,4.479219E3,3.4720905E0,-7.0285625E3],"categories":[],"categories_nodes":[],